tree
version=v3
num_class=1
num_tree_per_iteration=1
label_index=0
max_feature_idx=37
objective=binary sigmoid:1
feature_names=months_not_paid months_not_paid_sum months_not_paid_sum_cat limit_bal sex education marriage age pay_1 pay_2 pay_3 pay_4 pay_5 pay_6 bill_amt1 bill_amt2 bill_amt3 bill_amt4 bill_amt5 bill_amt6 pay_amt1 pay_amt2 pay_amt3 pay_amt4 pay_amt5 pay_amt6 rem_amt1 rem_amt2 rem_amt3 rem_amt4 rem_amt5 rem_amt6 pay_rate1 pay_rate2 pay_rate3 pay_rate4 pay_rate5 pay_rate6
feature_infos=[0:6] [0:36] [1:3] [10000:1000000] [1:2] [1:4] [1:3] [1:5] [1:9] [1:9] [1:9] [1:9] [1:8] [1:8] [-165580:964511] [-69777:983931] [-157264:1664089] [-170000:891586] [-81334:927171] [-339603:961664] [0:873552] [0:1684259] [0:896040] [0:621000] [0:426529] [0:528666] [-733744:913727] [-1702347:933208] [-854641:1542258] [-667000:841586] [-414380:877171] [-684896:911408] [0:2.6040999999999999] [0:12.80645] [0:2.6148323529411766] [0:3.125] [0:2.2400000000000002] [0:2.6650499999999999]
tree_sizes=1774 1787 1700 1817 1697 1813 1819 1765 1801 1825 1824 1815 1815 1810 1816 1834 1796 1836 1822 1816 1822 1845 1820 1829 1841 1837 1825 1839 1813 1811 1824 1832 1817 1818 1811 1795 1806 1837 1814 1810 1792 1731 1841 1835 1717 1807 1802 1813 1793 1842 1718 1831 1841 1829 1803 1814 1750 1697 1801 1825 1809 1823 1797 1802 1850 1823 1796 1796 1823 1827 1832 1797 1826 1666 1835 1822 1652 1836 1842 1687 1853 1696 1789 1794 1821 1478 1795 1597 1817 1607 1715 1814 1846 1818 1792 1460 1838 1709 1605 1722 1513 1767 1809 1812 1674 1669 1593 1841 1846 1736 1800 1473 1801 1442 1825 1435 1746 1613 1791 1765 1821 1583 1488 1463 1814 1614 1665 1458 1847 1797 1793 1457 1620 1459 1784 1823 1656 1496 1667 1820 1476 1527 1458 1794 1475 1757 1731 1831 1803 1450 1681 1488 1792 1443 1665 1837

Tree=0
num_leaves=16
num_cat=0
split_feature=8 0 1 21 20 26 3 13 23 21 22 5 27 21 30
split_gain=4558.44 1067.4 328.026 126.695 68.6451 62.5117 42.9906 40.1411 36.8289 24.8458 22.5354 21.7978 12.0643 10.5809 5.02468
threshold=2.5000000000000004 1.0000000180025095e-35 4.5000000000000009 1500.5000000000002 1526.5000000000002 1003.0000000000001 75000.000000000015 1.5000000000000002 2051.5000000000005 5900.5000000000009 12000.500000000002 3.5000000000000004 81.000000000000014 1765.5000000000002 -694.49999999999989
decision_type=2 2 2 2 2 2 2 2 2 2 2 2 2 2 2
left_child=1 3 4 8 -3 12 -5 11 -1 -4 -9 -7 14 -14 -2
right_child=5 2 9 6 -6 7 -8 10 -10 -11 -12 -13 13 -15 -16
leaf_value=-1.2703565412278612 -1.1686022730172263 -1.2375609003593546 -1.1857931236240089 -1.2818638732426575 -1.2657148864825531 -1.1272030087200582 -1.298835222013524 -1.0956202975490223 -1.2954346136178028 -1.2334345389183785 -1.2181942225217866 -1.2520695066035474 -1.1489815733256903 -1.2586870038498648 -1.2465325993276546
leaf_weight=894.60105040669441 3.2731407582759848 492.86608996987343 285.96913993358612 483.73574995994568 382.95746871829033 291.30952748656273 1876.8878190219402 200.00612738728523 178.3000360429287 33.592760413885117 4.8235758543014517 4.3067641556262961 21.017009079456333 3.2731407582759848 11.19758680462837
leaf_count=5193 19 2861 1660 2808 2223 1691 10895 1161 1035 195 28 25 122 19 65
internal_value=-1.25869 -1.27471 -1.23404 -1.28889 -1.24992 -1.1211 -1.29538 -1.11626 -1.27457 -1.19066 -1.09829 -1.12887 -1.18473 -1.16212 -1.2258
internal_weight=0 4628.91 1195.39 3433.52 875.824 539.207 2360.62 500.446 1072.9 319.562 204.83 295.616 38.7609 24.2901 14.4707
internal_count=30000 26870 6939 19931 5084 3130 13703 2905 6228 1855 1189 1716 225 141 84
shrinkage=1


Tree=1
num_leaves=16
num_cat=0
split_feature=8 0 1 21 20 26 3 14 13 1 5 22 27 21 30
split_gain=3846.47 975.239 279.474 119.939 61.3731 45.2353 41.1067 35.8049 27.7525 23.237 16.4844 15.9156 9.39154 8.23145 4.09594
threshold=2.5000000000000004 1.0000000180025095e-35 4.5000000000000009 1500.5000000000002 6.5000000000000009 1003.0000000000001 75000.000000000015 530.50000000000011 1.5000000000000002 10.500000000000002 3.5000000000000004 12000.500000000002 81.000000000000014 1765.5000000000002 -694.49999999999989
decision_type=2 2 2 2 2 2 2 2 2 2 2 2 2 2 2
left_child=1 3 4 7 -3 12 -5 -1 10 -4 -7 -10 14 -14 -2
right_child=5 2 9 6 -6 8 -8 -9 11 -11 -12 -13 13 -15 -16
leaf_value=0.00079271052468796513 0.081396168690784185 0.024880494695271576 0.054287851868947148 -0.022314066980543487 -0.0021518893295246629 0.11621060669516026 -0.039038035690085321 -0.020429155977948001 0.14178009703925096 0.086722353291025109 0.0062629098676945842 0.03759768452608192 0.098085894867822168 0 0.011466943577006793
leaf_weight=258.58463957905769 3.4368654340505591 341.27633661031723 251.93514922261238 477.4804276227951 538.84791693091393 312.51453760266304 1834.8315304517746 804.8367642313242 218.01303876936436 79.686001971364021 4.3226521462202063 4.9323212504386893 22.295576542615894 3.2731407582759848 11.27344563603401
leaf_count=1513 19 1958 1409 2808 3126 1691 10895 4715 1161 446 25 28 122 19 65
internal_value=0 -0.0153801 0.0230776 -0.0291981 0.00827904 0.121273 -0.0356041 -0.0152265 0.125189 0.0622173 0.114853 0.139677 0.067672 0.0870885 0.030864
internal_weight=0 4587.48 1211.75 3375.73 880.124 580.062 2312.31 1063.42 539.783 331.621 316.837 222.945 40.279 25.5687 14.7103
internal_count=30000 26870 6939 19931 5084 3130 13703 6228 2905 1855 1716 1189 225 141 84
shrinkage=0.05


Tree=2
num_leaves=15
num_cat=0
split_feature=8 0 1 21 20 3 14 23 5 13 21 21 16 33
split_gain=3293.23 891.354 239.753 113.544 56.4183 39.3044 34.7191 34.5717 23.0314 20.4721 19.8484 10.154 7.71306 0.828854
threshold=2.5000000000000004 1.0000000180025095e-35 4.5000000000000009 1500.5000000000002 1526.5000000000002 75000.000000000015 599.00000000000011 2051.5000000000005 3.5000000000000004 1.5000000000000002 5900.5000000000009 1857.5000000000002 1.0000000180025095e-35 0.040226973684210528
decision_type=2 2 2 2 2 2 2 2 2 2 2 2 2 2
left_child=1 3 4 7 -3 -5 11 -1 9 -8 -4 12 -2 -10
right_child=6 2 10 5 -6 -7 8 -9 13 -11 -12 -13 -14 -15
leaf_value=-0.010509534797575604 -0.011067283240763061 0.018837621762414693 0.061325947229950523 -0.021476506002019398 -0.0066038818046339504 -0.037954429278976763 0.1030376671616037 -0.035146202393486793 -0.013182078544192836 0.12372660063290986 0.019713882088086769 -0.046163224207849789 0.069114085099327746 0.026499673311324884
leaf_weight=881.35601770877838 2.6108433902263704 503.14856186509132 307.29864054918289 471.45306301116943 380.99671706557274 1793.9077825844288 346.23325173556805 172.91729210317135 2.8094079941511145 243.73814161121845 35.253029868006706 2.4439553022384635 14.765421271324156 2.255594938993454
leaf_count=5193 14 2861 1660 2808 2223 10895 1775 1035 16 1219 195 14 79 13
internal_value=0 -0.0147579 0.0216414 -0.0282221 0.00782345 -0.034545 0.108535 -0.014593 0.110749 0.111661 0.0571749 0.0397969 0.0544768 0
internal_weight=0 4546.33 1226.7 3319.63 884.145 2265.36 614.857 1054.27 595.036 589.971 342.552 19.8202 17.3763 5.065
internal_count=30000 26870 6939 19931 5084 13703 3130 6228 3023 2994 1855 107 93 29
shrinkage=0.05


Tree=3
num_leaves=16
num_cat=0
split_feature=8 0 1 21 20 3 14 26 1 12 36 22 27 17 14
split_gain=2848.4 814.966 206.916 107.401 50.4079 37.5738 33.1302 29.0481 18.3303 16.8828 16.2524 14.5056 7.38392 5.82653 2.94273
threshold=2.5000000000000004 1.0000000180025095e-35 4.5000000000000009 1500.5000000000002 3000.5000000000005 75000.000000000015 837.00000000000011 1003.0000000000001 10.500000000000002 1.5000000000000002 0.24785000000000004 12000.500000000002 -1.0000000180025095e-35 1.0000000180025095e-35 781.00000000000011
decision_type=2 2 2 2 2 2 2 2 2 2 2 2 2 2 2
left_child=1 3 4 6 -3 -5 -1 12 -4 10 -9 -11 14 -14 -2
right_child=7 2 8 5 -6 -7 -8 9 -10 11 -12 -13 13 -15 -16
leaf_value=-1.8465205383602791e-05 -0.0080435789363100842 0.01465828721513885 0.045840076414052661 -0.020663629846491869 -0.012129010748509011 -0.036895422822162842 -0.019718359170444788 0.094723178152777546 0.07376485369404015 0.11347162057229519 0.016307861003728906 0.024606229381103035 0.0055489979115698525 0.075968510829273583 0.04417775931088317
leaf_weight=306.52640436589718 5.0995240807533246 648.83454367518425 266.77060888707638 465.65022504329681 239.05526697635651 1754.1509932279587 738.99771074950695 331.88322085142136 85.673941493034363 255.45079267024994 8.1636038273572904 6.0007393062114707 4.8335889279842368 29.170546934008598 4.1072903126478195
leaf_count=1810 28 3684 1409 2808 1400 10895 4418 1619 446 1215 40 31 25 150 22
internal_value=0 -0.014161 0.020321 -0.0272728 0.0073954 -0.0335107 -0.0139858 0.0982032 0.0527558 0.101146 0.092973 0.111604 0.0561963 0.067282 0.0103654
internal_weight=0 4505.66 1240.33 3265.33 887.89 2219.8 1045.52 644.709 352.445 601.498 340.047 261.452 43.211 34.0041 9.20681
internal_count=30000 26870 6939 19931 5084 13703 6228 3130 1855 2905 1659 1246 225 175 50
shrinkage=0.05


Tree=4
num_leaves=15
num_cat=0
split_feature=8 0 1 22 3 20 14 14 5 21 13 21 16 33
split_gain=2485.79 745.273 179.488 104.09 64.9251 47.1609 39.7894 23.8511 18.031 16.3786 13.5536 8.47606 6.22067 0.669485
threshold=2.5000000000000004 1.0000000180025095e-35 4.5000000000000009 801.00000000000011 75000.000000000015 6.5000000000000009 1274.0000000000002 599.00000000000011 3.5000000000000004 5900.5000000000009 1.5000000000000002 1857.5000000000002 1.0000000180025095e-35 0.040226973684210528
decision_type=2 2 2 2 2 2 2 2 2 2 2 2 2 2
left_child=1 3 5 6 -5 -3 -1 11 10 -4 -9 12 -2 -10
right_child=7 2 9 4 -6 -7 -8 8 13 -11 -12 -13 -14 -15
leaf_value=0.0033818867252829021 -0.011816801950775037 0.021234839426666478 0.05248009073858774 -0.016735591396881317 -0.036125678860736019 -0.002226730842262185 -0.019472853780394123 0.08529499325666981 -0.016315297701759341 0.015359055747693862 0.10172006053909213 -0.045713952260444411 0.058909484882842159 0.019328563005042383
leaf_weight=307.7955025434494 2.6325558274984422 352.20572692155838 324.81597554683685 576.89966769516468 1840.9931725859642 539.21424415707588 487.10449153184891 376.61046220362186 2.9216982573270789 36.60934916138649 267.29778899252415 2.4195634573698035 15.679741099476812 2.3982991874217987
leaf_count=1836 14 1958 1660 3508 11608 3126 2979 1775 16 195 1219 14 79 13
internal_value=0 -0.0135869 0.0191021 -0.0263482 -0.0315179 0.0069926 -0.0105666 0.0896967 0.0914258 0.0488445 0.0921832 0.0333771 0.0462846 0
internal_weight=0 4465.64 1252.85 3212.79 2417.89 891.42 794.9 669.96 649.228 361.425 643.908 20.7319 18.3123 5.32
internal_count=30000 26870 6939 19931 15116 5084 4815 3130 3023 1855 2994 107 93 29
shrinkage=0.05


Tree=5
num_leaves=16
num_cat=0
split_feature=1 8 14 1 3 22 20 15 29 26 1 21 23 5 27
split_gain=2202.58 588.257 199.878 130.289 84.8212 61.8686 33.6189 28.4034 21.7752 20.8967 15.9926 15.8615 13.918 12.952 5.98949
threshold=1.5000000000000002 2.5000000000000004 781.00000000000011 4.5000000000000009 65000.000000000007 1.0000000180025095e-35 1099.5000000000002 4043.5000000000005 -1.0000000180025095e-35 1003.0000000000001 6.5000000000000009 4571.5000000000009 884.50000000000011 3.5000000000000004 -1.0000000180025095e-35
decision_type=2 2 2 2 2 2 2 2 2 2 2 2 2 2 2
left_child=2 3 5 6 11 8 -2 -6 -1 14 -5 -4 -7 -11 -3
right_child=1 9 4 10 7 12 -8 -9 -10 13 -12 -13 -14 -15 -16
leaf_value=-0.0031581522221717007 0.023356561357738528 0.0065202167730441579 -0.01068426518137691 0.031581496352258931 -0.022277794299984711 -0.0050188711347812871 -0.001292111620146006 -0.036712642820639053 0.024703617162800943 0.085522950514517082 0.053967082550412653 -0.036936733236985396 -0.026565207046885583 0 0.057016604730187284
leaf_weight=94.56680129468441 213.86796641349792 9.5193112939596158 618.32739362120628 144.13615922629833 451.95599423348904 194.38855895400047 382.91861872375011 1661.7561320066452 244.24591329693794 640.88897505402565 225.42875768244267 65.547001481056213 129.17192687094212 4.9663115739822379 36.025288075208664
leaf_count=546 1184 50 3791 728 2840 1146 2234 10696 1391 2878 1127 404 783 27 175
internal_value=0 0.0472608 -0.0228328 0.0220036 -0.0286813 0.00180112 0.00746573 -0.0336475 0.0167942 0.082497 0.0453581 -0.0132663 -0.0137597 0.0848987 0.0474504
internal_weight=0 1657.75 3459.96 966.352 2797.59 662.373 596.787 2113.71 338.813 691.4 369.565 683.874 323.56 645.855 45.5446
internal_count=30000 8403 21597 5273 17731 3866 3418 13536 1937 3130 1855 4195 1929 2905 225
shrinkage=0.05


Tree=6
num_leaves=16
num_cat=0
split_feature=1 8 22 1 14 3 20 26 25 14 21 34 3 12 21
split_gain=1974.54 507.246 186.162 113.717 68.3411 56.8395 29.8721 28.6285 21.5711 17.9858 16.4765 14.8517 13.505 13.4326 7.16214
threshold=1.5000000000000002 2.5000000000000004 581.50000000000011 4.5000000000000009 530.50000000000011 145000.00000000003 1099.5000000000002 210975.00000000003 66.500000000000014 599.00000000000011 4988.0000000000009 0.040471428571428582 65000.000000000007 1.5000000000000002 1857.5000000000002
decision_type=2 2 2 2 2 2 2 2 2 2 2 2 2 2 2
left_child=2 3 4 6 8 10 -2 -7 -1 14 -4 -5 -6 -11 -3
right_child=1 9 5 11 12 7 -8 -9 -10 13 -12 -13 -14 -15 -16
leaf_value=0.020666340477479575 0.02191257364135217 0.039460503176039607 -0.017694868805929 0.035820371561936466 -0.002234264966991291 -0.038095490085813435 -0.0012284206078928565 -0.013479251740764212 -0.0026423634120542449 0.07105844958394919 -0.034519766783559051 0.059378121151066554 -0.021069752375825757 0.086577031750472738 -0.045306073311116773
leaf_weight=270.80973130464554 216.493283867836 19.111938878893856 936.13875867426395 276.41268287599087 141.79172840714455 1264.0595889389515 382.64129745960236 136.76920962333679 151.69847303628922 393.00353072583675 181.48325648903847 100.57206758856773 328.96206811070442 294.95865654945374 2.3959393203258506
leaf_count=1529 1184 93 5911 1361 872 8246 2234 908 882 1748 1179 494 2070 1275 14
internal_value=0 0.0441331 -0.0220139 0.0206859 -0.00234774 -0.0289714 0.00705831 -0.0357242 0.012191 0.0763295 -0.0204672 0.0422245 -0.0154921 0.0777773 0.0279254
internal_weight=0 1685.59 3411.71 976.119 893.262 2518.45 599.135 1400.83 422.508 709.47 1117.62 376.985 470.754 687.962 21.5079
internal_count=30000 8403 21597 5273 5353 16244 3418 9154 2411 3130 7090 1855 2942 3023 107
shrinkage=0.05


Tree=7
num_leaves=16
num_cat=0
split_feature=1 8 14 1 3 22 14 15 29 29 21 1 14 5 30
split_gain=1773.37 441.341 176.302 99.5993 77.7137 49.3039 28.4238 27.7915 18.5207 16.3471 14.4067 13.7933 12.907 12.8974 4.95187
threshold=1.5000000000000002 2.5000000000000004 781.00000000000011 4.5000000000000009 65000.000000000007 1.0000000180025095e-35 15853.000000000002 4043.5000000000005 -1.0000000180025095e-35 -13.499999999999998 4571.5000000000009 10.500000000000002 317.50000000000006 3.5000000000000004 782.50000000000011
decision_type=2 2 2 2 2 2 2 2 2 2 2 2 2 2 2
left_child=2 3 5 6 10 8 -2 -6 -1 14 -4 -5 -7 -11 -3
right_child=1 9 4 11 7 12 -8 -9 -10 13 -12 -13 -14 -15 -16
leaf_value=-0.0033887606275672128 0.01913532777434742 0 -0.0095767151442601381 0.033597605997331574 -0.020360895443275157 -0.02060235866474084 -0.0027101954677078216 -0.034872804795378493 0.022188075729719928 0.072945776742980958 -0.035069095095778206 0.056727630355756842 0 0 0.045144408027207102
leaf_weight=94.80366912484169 260.39836326241493 9.0771814733743685 609.14559505879879 289.56044578552246 437.84422822296619 188.86212389171124 340.92517353594303 1593.8854029029608 249.55793999135494 696.65034167468548 62.986432015895844 94.190746992826462 128.19751720130444 5.520636945962905 13.3544455319643
leaf_count=546 1462 42 3791 1409 2840 1137 1956 10696 1391 2998 404 446 792 29 61
internal_value=0 0.041317 -0.0212171 0.0194661 -0.0268785 0.00185815 0.006675 -0.0317676 0.015016 0.0709605 -0.0120326 0.0393921 -0.0122908 0.0723418 0.0257182
internal_weight=0 1709.68 3365.28 985.075 2703.86 661.421 601.324 2031.73 344.362 724.603 672.132 383.751 317.06 702.171 22.4316
internal_count=30000 8403 21597 5273 17731 3866 3418 13536 1937 3130 4195 1855 1929 3027 103
shrinkage=0.05


Tree=8
num_leaves=16
num_cat=0
split_feature=1 8 22 1 14 3 26 20 23 26 21 21 14 24 21
split_gain=1595.07 386.799 164.891 87.5431 55.4876 53.1966 28.2959 26.194 18.4789 15.5991 14.9632 13.4448 12.0573 11.9392 5.0268
threshold=1.5000000000000002 2.5000000000000004 581.50000000000011 4.5000000000000009 530.50000000000011 145000.00000000003 210975.00000000003 1599.5000000000002 2659.5000000000005 1003.0000000000001 4988.0000000000009 5900.5000000000009 6862.0000000000009 21575.000000000004 1857.5000000000002
decision_type=2 2 2 2 2 2 2 2 2 2 2 2 2 2 2
left_child=2 3 4 7 8 10 -7 -2 -1 14 -4 -5 -6 -11 -3
right_child=1 9 5 11 12 6 -8 -9 -10 13 -12 -13 -14 -15 -16
leaf_value=0.013828059044786329 0.017336376290211855 0.043819028515335201 -0.01621585787795829 0.039958886597607123 -0.0050819670416454516 -0.036296227667668816 -0.011450865946622578 -0.0034368734261247739 -0.027337535060953544 0.069017315363815931 -0.032573144896124902 0.0075667133839736576 -0.021635283968898206 0.0067884041769085959 0
leaf_weight=398.76969838142395 285.39873892068863 40.553568854928017 914.84998993575573 350.75702746212482 214.33647702634335 1210.8661772310734 132.62639541924 318.07838825881481 28.588450714945793 679.41214248538017 173.93891386687756 39.111700087785721 246.27484834194183 9.4216699302196485 7.8885030895471564
leaf_count=2242 1552 185 5911 1660 1362 8246 908 1866 169 2864 1179 195 1580 41 40
internal_value=0 0.0387607 -0.020444 0.0183334 -0.00194804 -0.0271779 -0.033877 0.00631272 0.010969 0.0662218 -0.0188703 0.0368247 -0.0140302 0.0682315 0.0367152
internal_weight=0 1730.62 3320.25 993.346 887.969 2432.28 1343.49 603.477 427.358 737.276 1088.79 389.869 460.611 688.834 48.4421
internal_count=30000 8403 21597 5273 5353 16244 9154 3418 2411 3130 7090 1855 2942 2905 225
shrinkage=0.05


Tree=9
num_leaves=16
num_cat=0
split_feature=1 8 18 1 3 14 14 15 22 13 14 3 9 21 31
split_gain=1436.89 341.374 155.166 77.1533 54.8307 53.5853 24.4216 22.911 18.0096 15.646 15.1314 14.6804 12.6115 12.2074 8.87442
threshold=1.5000000000000002 2.5000000000000004 1012.5000000000001 4.5000000000000009 95000.000000000015 1200.5000000000002 15853.000000000002 5590.5000000000009 1.0000000180025095e-35 1.5000000000000002 2271.5000000000005 55000.000000000007 2.5000000000000004 4988.0000000000009 712.00000000000011
decision_type=2 2 2 2 2 2 2 2 2 2 2 2 2 2 2
left_child=2 3 5 6 13 8 -2 -6 -1 10 -3 -7 -5 -4 -11
right_child=1 9 4 12 7 11 -8 -9 -10 14 -12 -13 -14 -15 -16
leaf_value=0.015448922667604587 0.017401470821691519 0.023616536893358336 -0.013494622302488239 0.019646681328169387 -0.020928339502446585 0.00070143146717066313 -0.0027562717400574552 -0.035441184589957965 -0.003459756649056202 0.024331488058336154 0.0584991712322247 -0.021801322138076902 0.04031749171662552 -0.033440943402770491 0.073181353363487786
leaf_weight=327.15532885491848 264.38187830150127 38.540177524089813 719.09767927229404 113.77799516916275 376.75592076778412 91.237007841467857 341.01541131734848 1180.2961809635162 199.30112335085869 12.498894810676573 405.52084374427795 292.83697637915611 281.6490763425827 90.355789214372635 291.02200400829315
leaf_count=1816 1462 177 4629 539 2513 574 1956 8295 1216 54 1704 1943 1316 611 1195
internal_value=0 0.0364393 -0.0196922 0.0172822 -0.0264426 -0.00209831 0.00597245 -0.0319584 0.00820517 0.0620257 0.055573 -0.0163386 0.0344836 -0.0157767 0.071318
internal_weight=0 1748.41 3277.04 1000.82 2366.51 910.53 605.397 1557.05 526.456 747.582 444.061 384.074 395.427 809.453 303.521
internal_count=30000 8403 21597 5273 16048 5549 3418 10808 3032 3130 1881 2517 1855 5240 1249
shrinkage=0.05


Tree=10
num_leaves=16
num_cat=0
split_feature=1 8 22 9 3 14 26 1 23 7 3 12 28 14 3
split_gain=1295.93 303.181 145.067 70.7221 49.1812 45.6332 28.0209 26.4289 22.4796 17.5974 14.3505 14.2117 14.2408 14.0373 11.5542
threshold=1.5000000000000002 2.5000000000000004 581.50000000000011 2.5000000000000004 145000.00000000003 530.50000000000011 210975.00000000003 5.5000000000000009 799.50000000000011 4.5000000000000009 45000.000000000007 1.5000000000000002 -188.49999999999997 599.00000000000011 65000.000000000007
decision_type=2 2 2 2 2 2 2 2 2 2 2 2 2 2 2
left_child=2 3 5 8 10 9 -6 -5 -2 -1 -4 13 -13 -3 -7
right_child=1 11 4 7 6 14 -8 -9 -10 -11 -12 12 -14 -15 -16
leaf_value=0.0085498187049482116 0.01649057593337826 0.0013997599469874652 -0.0059105560995409015 0.019545848112363852 -0.034532192163298302 -0.00042850244617415869 -0.009436978182507539 0.04400691343581143 -0.0042241110120428147 0.090838238817834149 -0.020433753446584761 -0.041103992944790058 0.067767610947719326 0.053622066867069468 -0.018101756225980092
leaf_weight=424.72812947630882 216.35711614787579 15.103821113705633 225.23917351663113 256.12104360759258 1160.1030647456646 138.70179586112499 128.65804164111614 208.79579789936543 326.53778131306171 6.7334622889757147 837.60082913935184 2.5158071964979163 318.20259590446949 419.93798072636127 313.3863101452589
leaf_count=2374 1169 73 1441 1314 8246 872 908 957 1833 37 5649 11 1298 1748 2070
internal_value=0 0.0343153 -0.0189623 0.0163007 -0.0254536 -0.00163462 -0.0320618 0.0306282 0.00394832 0.00993832 -0.0173983 0.0582784 0.0667733 0.0519124 -0.0127791
internal_weight=0 1763.57 3235.15 1007.81 2351.6 883.55 1288.76 464.917 542.895 431.462 1062.84 755.76 320.718 435.042 452.088
internal_count=30000 8403 21597 5273 16244 5353 9154 2271 3002 2411 7090 3130 1309 1821 2942
shrinkage=0.05


Tree=11
num_leaves=16
num_cat=0
split_feature=1 8 18 9 3 20 1 28 7 23 13 21 14 5 22
split_gain=1169.68 270.457 138.973 62.5784 50.2485 45.2227 23.0993 21.1939 20.6916 20.1263 13.1184 13.1066 12.2337 10.0586 8.94039
threshold=1.5000000000000002 2.5000000000000004 1302.5000000000002 2.5000000000000004 75000.000000000015 391.00000000000006 5.5000000000000009 197480.00000000003 3.5000000000000004 799.50000000000011 1.5000000000000002 3769.5000000000005 2271.5000000000005 1.5000000000000002 12000.500000000002
decision_type=2 2 2 2 2 2 2 2 2 2 2 2 2 2 2
left_child=2 3 5 9 13 8 -5 -6 -1 -2 12 -7 -3 -4 -12
right_child=1 10 4 6 7 11 -8 -9 -10 -11 14 -13 -14 -15 -16
leaf_value=0.0050835593189044329 0.015535479899199492 0.020363540910387536 -0.025676721669522552 0.018398653284318511 -0.031339747328382621 -0.0092328690536554511 0.041159383477708499 -0.009085897997845838 0.04312313369730153 -0.0040221020094330096 0.064688591039327489 -0.030972410563188953 0.051621641976047621 -0.009503607788527043 0.0019608269666908621
leaf_weight=457.48245532810688 218.12844364345074 39.201372042298317 126.02945867180824 258.42487615346909 1499.8138348013163 363.97317606210709 211.99282328784466 121.48753733932972 39.375875279307365 325.8102985471487 301.45116998255253 89.626390367746353 414.293781042099 497.21120977401733 7.3003523647785178
leaf_count=2662 1169 177 820 1314 10821 2342 957 871 226 1833 1218 630 1704 3225 31
internal_value=0 0.0323556 -0.0182525 0.0153826 -0.0250403 -0.0021756 0.0287514 -0.0297 0.00818875 0.00373808 0.0548832 -0.0136276 0.0490188 -0.0128463 0.0633512
internal_weight=0 1776.6 3195 1014.36 2244.54 950.458 470.418 1621.3 496.858 543.939 762.247 453.6 453.495 623.241 308.752
internal_count=30000 8403 21597 5273 15737 5860 2271 11692 2888 3002 3130 2972 1881 4045 1249
shrinkage=0.05


Tree=12
num_leaves=16
num_cat=0
split_feature=1 8 14 3 1 23 3 15 29 34 12 28 21 14 25
split_gain=1056.73 242.347 131.293 67.7679 56.6866 39.4685 22.976 18.7848 15.5457 12.0788 11.9901 12.5121 11.6237 11.6034 7.15031
threshold=1.5000000000000002 2.5000000000000004 1274.0000000000002 65000.000000000007 4.5000000000000009 988.50000000000011 185000.00000000003 283257.00000000006 88.500000000000014 0.040471428571428582 1.5000000000000002 -188.49999999999997 1639.5000000000002 2271.5000000000005 1.0000000180025095e-35
decision_type=2 2 2 2 2 2 2 2 2 2 2 2 2 2 2
left_child=2 4 5 12 6 8 -2 -5 -1 -6 13 -12 -4 -3 -7
right_child=1 10 3 7 9 14 -8 -9 -10 -11 11 -13 -14 -15 -16
leaf_value=0.01275093581464733 0.010674830320503455 0.017668163227024476 -0.0019618642575008247 -0.029190857411006455 0.023440274752629258 -0.00042024876494642686 -0.011201608663311258 0 -0.0058408734717525475 0.043669988307588753 -0.041338051781349618 0.060517407841163398 -0.015702737275588487 0.048543185127581628 -0.024061969836730885
leaf_weight=400.99969162046909 450.1805224865675 38.038699075579643 307.95198276638985 1719.8816635757685 298.65377829968929 45.846700310707092 161.96247053146362 56.496901392936707 152.45715560019016 109.54808960855007 2.5170570760965338 322.23983457684517 325.42591941356659 404.35257647931576 147.44556927680969
leaf_count=2233 2515 171 1972 12598 1361 291 903 405 961 494 11 1298 2146 1650 991
internal_value=0 0.0305504 -0.0175629 -0.02324 0.0145253 0.000697076 0.00481319 -0.028259 0.00754826 0.0289795 0.0518058 0.0595894 -0.00909289 0.0459901 -0.0186872
internal_weight=0 1787.49 3156.51 2409.76 1020.34 746.749 612.143 1776.38 553.457 408.202 767.148 324.757 633.378 442.391 193.292
internal_count=30000 8403 21597 17121 5273 4476 3418 13003 3194 1855 3130 1309 4118 1821 1282
shrinkage=0.05


Tree=13
num_leaves=16
num_cat=0
split_feature=8 8 0 20 1 3 26 14 25 3 24 13 3 14 9
split_gain=958.311 157.438 124.959 70.0407 46.8456 32.9882 29.4854 25.5394 20.9155 19.7132 11.8461 11.2987 11.0482 9.57499 9.17332
threshold=1.5000000000000002 2.5000000000000004 1.0000000180025095e-35 1993.5000000000002 5.5000000000000009 75000.000000000015 6889.5000000000009 17018.500000000004 663.50000000000011 145000.00000000003 1.0000000180025095e-35 1.5000000000000002 205000.00000000003 2271.5000000000005 4.5000000000000009
decision_type=2 2 2 2 2 2 2 2 2 2 2 2 2 2 2
left_child=2 4 3 6 8 -5 -1 9 -2 -4 -6 13 -9 -3 -13
right_child=1 11 7 5 10 -7 -8 12 -10 -11 -12 14 -14 -15 -16
leaf_value=-0.0018820771153241216 0.017062110235601679 0.018141745315622012 0.026371542843982732 -0.011385861284111794 0.055131245145016439 -0.028950962363920037 -0.018462978432247704 0 -0.0030086187745254414 -0.00018431294280185046 0.02784955340276218 0.058973143347777826 -0.0261363392744021 0.045863671678405167 0.017179652400520988
leaf_weight=613.90838313102722 298.44166804850101 39.667669013142586 185.68548431992531 343.05809466540813 65.396158114075661 1379.2781784236431 485.62350171804428 258.60917685925961 223.88682062923908 106.70691913366318 136.73453642427921 294.06551729142666 47.772069871425629 420.04130697250366 16.9814333319664
leaf_count=3946 1591 177 971 2278 287 10394 3313 1434 1204 570 606 1181 276 1704 68
internal_value=0 0.0332225 -0.0147636 -0.0191695 0.0163941 -0.0254784 -0.00924619 0.00592517 0.008373 0.0165262 0.0368987 0.0489818 -0.00404498 0.0435695 0.0568361
internal_weight=0 1495.22 3420.64 2821.87 724.459 1722.34 1099.53 598.774 522.328 292.392 202.131 770.756 306.381 459.709 311.047
internal_count=30000 6818 23182 19931 3688 12672 7259 3251 2795 1541 893 3130 1710 1881 1249
shrinkage=0.05


Tree=14
num_leaves=16
num_cat=0
split_feature=1 8 18 9 3 20 28 1 22 1 21 29 5 3 24
split_gain=867.799 194.997 116.466 49.388 45.0745 35.9822 22.4607 17.8393 16.418 15.3211 12.2929 10.5765 10.4445 9.17885 4.25761
threshold=1.5000000000000002 2.5000000000000004 1302.5000000000002 2.5000000000000004 95000.000000000015 1201.0000000000002 197480.00000000003 3.5000000000000004 801.00000000000011 5.5000000000000009 4988.0000000000009 -13.499999999999998 3.5000000000000004 45000.000000000007 840.50000000000011
decision_type=2 2 2 2 2 2 2 2 2 2 2 2 2 2 2
left_child=2 3 5 7 10 8 -6 -2 -1 -5 -4 14 -13 -7 -3
right_child=1 11 4 9 6 13 -8 -9 -10 -11 -12 12 -14 -15 -16
leaf_value=0.0087244163056255514 -0.0040133521443254548 0.03160285453189482 -0.010499653992562063 0.016307674993140772 -0.030068021552747605 0.0073426618604883797 -0.0066743221244873214 0.014651550596179633 -0.012975065432766228 0.034733978810073111 -0.031233892734086978 0.048011892105672443 -0.01108492450389215 -0.018913062423302703 -0.0084283295558648785
leaf_weight=533.72486698627472 347.92548975348473 12.8535682708025 677.45004214346409 262.4658332914114 1265.6633554399014 35.316256761550903 117.15069854259491 200.7513080239296 102.77203033864498 218.94100067019463 83.28258603811264 742.97175073623657 6.3059103190898886 269.53572316467762 11.123137474060057
leaf_count=3083 1984 56 4571 1314 9692 225 871 1018 680 957 603 2998 29 1872 47
internal_value=0 0.0273875 -0.0162737 0.0130813 -0.0227133 -0.00156208 -0.0281187 0.0027338 0.00515001 0.0247813 -0.0128287 0.0463871 0.0474545 -0.0157238 0.011155
internal_weight=0 1803.34 3084.9 1030.08 2143.55 941.349 1382.81 548.677 636.497 481.407 760.733 773.254 749.278 304.852 23.9767
internal_count=30000 8403 21597 5273 15737 5860 10563 3002 3763 2271 5174 3130 3027 2097 103
shrinkage=0.05


Tree=15
num_leaves=16
num_cat=0
split_feature=0 8 21 9 23 23 3 14 14 25 28 13 14 31 28
split_gain=789.291 218.013 63.0527 49.8719 33.5778 23.1362 22.8727 25.9212 15.6286 14.4057 10.9675 10.6201 8.45552 8.40047 5.01377
threshold=1.0000000180025095e-35 2.5000000000000004 1500.5000000000002 2.5000000000000004 700.50000000000011 2051.5000000000005 145000.00000000003 2000.5000000000002 8680.0000000000018 7077.5000000000009 127204.00000000001 1.5000000000000002 599.00000000000011 712.00000000000011 652.50000000000011
decision_type=2 2 2 2 2 2 2 2 2 2 2 2 2 2 2
left_child=2 3 5 4 -2 8 10 -8 -1 -5 -4 12 -3 -13 -7
right_child=1 11 6 9 -6 14 7 -9 -10 -11 -12 13 -14 -15 -16
leaf_value=0.0014252264452785785 0.012802985006089699 0.0014420189081361446 -0.017533570183565366 0.025689295578846236 -0.0070803523460454378 -0.03219594364323685 -0.004992388119141291 -0.031046431220605231 -0.012837503891946923 -0.0076063613324334842 0.025410804007702972 0.0082786788689582416 0.040095367971116777 0.053327679231788605 -0.0099326259971091388
leaf_weight=499.37360011041164 439.26459303498268 17.112164452672005 761.18693232536316 452.6216155141592 408.27928644418716 100.6151330024004 111.26989850401878 915.33993841707706 307.48527070879936 32.803845345973969 14.316138073801993 13.190834552049635 446.5373740196228 298.12169110774994 42.662893638014793
leaf_count=3117 2334 79 5492 2111 2334 730 823 7275 2076 160 113 54 1802 1195 305
internal_value=0 0.0228576 -0.0177999 0.0105525 0.00317168 -0.00730819 -0.0233066 -0.0282664 -0.00395438 0.0233466 -0.0166828 0.0439649 0.0387658 0.0515634 -0.0258808
internal_weight=0 2107.93 2752.25 1332.97 847.544 950.137 1802.11 1026.61 806.859 485.425 775.503 774.962 463.65 311.313 143.278
internal_count=30000 10069 19931 6939 4668 6228 13703 8098 5193 2271 5605 3130 1881 1249 1035
shrinkage=0.05


Tree=16
num_leaves=16
num_cat=0
split_feature=0 8 20 1 3 25 26 26 32 23 34 12 22 14 27
split_gain=715.554 197.347 59.272 44.6918 29.5323 26.5022 24.744 24.148 21.2554 13.7994 10.7676 10.083 10.6611 9.05586 8.54999
threshold=1.0000000180025095e-35 2.5000000000000004 1993.5000000000002 4.5000000000000009 75000.000000000015 9937.5000000000018 6889.5000000000009 128318.50000000001 0.035320714285714296 2240.5000000000005 0.038889444444444456 1.5000000000000002 12000.500000000002 599.00000000000011 43330.000000000007
decision_type=2 2 2 2 2 2 2 2 2 2 2 2 2 2 2
left_child=2 3 6 5 14 -2 9 -6 -8 -1 -5 13 -13 -3 -4
right_child=1 11 4 10 7 -7 8 -9 -10 -11 -12 12 -14 -15 -16
leaf_value=0.0019228326001617089 0.0059415061305531716 0 -0.016337042052993512 0.018094188465527752 -0.030350773045054787 -0.029585199820152116 -0.024204066566282913 -0.01399847701540005 -0.0014382014619593085 -0.01886659291869661 0.036420035831880568 0.050322802450665095 -0.0028110084459589285 0.037834175148564436 0
leaf_weight=514.09563247859478 862.36327548325062 15.689761012792586 196.97534994781017 298.51771245896816 999.14829218387604 55.592481583356857 310.84220721572638 306.75157681107521 159.47053799033165 94.125127196311951 121.67264512181282 317.66039358079433 8.0810769796371442 434.1083902567625 137.44619673490524
leaf_count=3251 4761 73 1338 1323 7946 323 2251 2448 1062 695 532 1276 33 1748 940
internal_value=0 0.0216567 -0.0171283 0.00998156 -0.023129 0.00374095 -0.00796016 -0.0265441 -0.0165804 -0.00122045 0.0235078 0.0417435 0.0488665 0.0364851 -0.00965858
internal_weight=0 2113.69 2718.85 1338.15 1640.32 917.956 1078.53 1305.9 470.313 608.221 420.19 775.54 325.741 449.798 334.422
internal_count=30000 10069 19931 6939 12672 5084 7259 10394 3313 3946 1855 3130 1309 1821 2278
shrinkage=0.05


Tree=17
num_leaves=16
num_cat=0
split_feature=0 8 21 9 23 3 14 23 20 3 21 13 9 30 28
split_gain=648.891 178.745 56.5168 42.0075 29.7345 21.4189 24.4193 20.5469 13.3445 12.861 10.2108 9.42266 8.57732 7.71768 4.77877
threshold=1.0000000180025095e-35 2.5000000000000004 1500.5000000000002 2.5000000000000004 700.50000000000011 145000.00000000003 2000.5000000000002 2051.5000000000005 1600.5000000000002 155000.00000000003 10071.500000000002 1.5000000000000002 4.5000000000000009 -75.999999999999986 652.50000000000011
decision_type=2 2 2 2 2 2 2 2 2 2 2 2 2 2 2
left_child=2 3 7 4 -2 10 -7 8 -1 -5 -4 13 -13 -3 -9
right_child=1 11 5 9 -6 6 -8 14 -10 -11 -12 12 -14 -15 -16
leaf_value=0.00043000503400505839 0.011667361167581547 0.0073578919890674921 -0.013634225491329786 0.025596033100628485 -0.0070096124366923682 -0.003976222553067686 -0.029489021856271017 -0.030629798478475273 -0.014131419109774635 0.0059152145292341914 -0.036888745169681887 0.048895936496979125 0.0088496324354653648 0.036445366257760285 -0.0086469094350080412
leaf_weight=588.32886666059494 443.39503556489944 28.207781255245209 704.1009790673852 377.01048468053341 407.72881749272346 109.61808085441589 880.3404161632061 96.971425153315067 212.09602901339531 114.62776705622673 53.535171933472157 292.93302246928215 16.920474112033844 437.34344235062599 41.828326053917408
leaf_count=3727 2334 118 5195 1719 2334 823 7275 730 1466 552 410 1181 68 1763 305
internal_value=0 0.0205309 -0.0164775 0.00944937 0.00266733 -0.0218048 -0.0267094 -0.00651722 -0.00337225 0.0210989 -0.0153368 0.0396627 0.0468543 0.0347796 -0.0243293
internal_weight=0 2118.17 2686.82 1342.76 851.124 1747.59 989.958 939.225 800.425 491.638 757.636 775.405 309.853 465.551 138.8
internal_count=30000 10069 19931 6939 4668 13703 8098 6228 5193 2271 5605 3130 1249 1881 1035
shrinkage=0.05


Tree=18
num_leaves=16
num_cat=0
split_feature=0 8 25 1 25 14 3 26 20 34 12 28 30 14 33
split_gain=588.634 162.185 53.2153 38.557 29.8508 27.1298 22.6243 16.4544 26.0866 11.1623 8.96402 10.2381 8.35536 7.97266 6.90388
threshold=1.0000000180025095e-35 2.5000000000000004 1500.5000000000002 6.5000000000000009 7996.0000000000009 781.00000000000011 195000.00000000003 228600.00000000003 4901.0000000000009 0.039809090909090912 1.5000000000000002 94.000000000000014 -1.0000000180025095e-35 599.00000000000011 0.042483750000000008
decision_type=2 2 2 2 2 2 2 2 2 2 2 2 2 2 2
left_child=2 3 5 4 -2 12 -7 8 -4 -5 13 -12 -1 -3 -9
right_child=1 10 7 9 -6 6 -8 14 -10 -11 11 -13 -14 -15 -16
leaf_value=-0.0089781859145391021 0.007120330028824332 0 -0.017973096034966801 0.019328557751218584 -0.024446511190622792 -0.0079895911728487118 -0.025273600294115958 0.0044375897212488675 -0.032758526750721495 0.043263332894189238 -0.032621380329511028 0.045473953403265321 0.0099189116728007152 0.034042486897699398 -0.030409913511482603
leaf_weight=78.178550876677036 1004.5303534567356 15.835046038031576 724.61877337098122 188.80144399404526 80.423327699303627 751.54504477232695 259.84221322089434 73.530293308198452 536.67371556907892 73.324832692742348 3.5789826810359946 320.28101985156536 214.37064546346664 435.06638211011887 17.393702253699303
leaf_count=479 5351 73 5606 815 461 5328 2020 575 4498 312 15 1294 1289 1748 136
internal_value=0 0.0194749 -0.0158459 0.00894754 0.00473893 -0.00858344 -0.0124746 -0.0228158 -0.0242999 0.0261955 0.0377207 0.044472 0.00471518 0.0327718 -0.0017338
internal_weight=0 2121.84 2656.15 1347.08 1084.95 1303.94 1011.39 1352.22 1261.29 262.126 774.761 323.86 292.549 450.901 90.924
internal_count=30000 10069 19931 6939 5812 9116 7348 10815 10104 1127 3130 1309 1768 1821 711
shrinkage=0.05


Tree=19
num_leaves=16
num_cat=0
split_feature=0 8 21 9 22 3 26 23 20 24 28 5 29 27 32
split_gain=533.887 147.269 50.5174 35.864 27.0164 19.669 24.1326 18.8134 12.8644 11.5998 10.6246 8.84774 8.86232 3.76263 1.2761
threshold=1.0000000180025095e-35 2.5000000000000004 1500.5000000000002 2.5000000000000004 1.0000000180025095e-35 145000.00000000003 191236.00000000003 2960.5000000000005 1600.5000000000002 5.5000000000000009 127204.00000000001 3.5000000000000004 -13.499999999999998 -958.49999999999989 0.034404000000000011
decision_type=2 2 2 2 2 2 2 2 2 2 2 2 2 2 2
left_child=2 3 7 4 -2 10 -7 8 -1 -5 -4 12 -3 -9 -13
right_child=1 11 5 9 -6 6 -8 13 -10 -11 -12 14 -14 -15 -16
leaf_value=0.00060020584173779657 0.012639074668021527 0.0046108976175107457 -0.014994899507424423 0.031734112255766611 -0.0053343848621359912 -0.028529348009456463 -0.0058551715908970389 0.028851202110994418 -0.013445808164270906 0.014192227658465589 0.028002573456098179 -0.037674234943476992 0.037397210632059905 -0.026955415042910949 0
leaf_weight=598.88621475547552 360.85515500605106 24.435879930853844 728.15817029774189 138.39254312217236 493.58105547726154 812.1539656445384 143.22388426214457 2.3316066041588774 221.2659477815032 358.32638409733772 13.939676254987715 3.6431041806936255 742.42442677915096 106.83170530945063 2.9528347551822662
leaf_count=3823 1884 103 5492 617 2784 6945 1153 18 1566 1654 113 16 2998 821 13
internal_value=0 0.0184778 -0.0152316 0.00847433 0.0022037 -0.0203727 -0.0251773 -0.00579251 -0.00313435 0.0191702 -0.0141266 0.0358947 0.0364112 -0.0253512 -0.0173283
internal_weight=0 2124.61 2626.79 1351.16 854.436 1697.48 955.378 929.315 820.152 496.719 742.098 773.456 766.86 109.163 6.59594
internal_count=30000 10069 19931 6939 4668 13703 8098 6228 5389 2271 5605 3130 3101 839 29
shrinkage=0.05


Tree=20
num_leaves=16
num_cat=0
split_feature=0 8 25 3 3 15 14 25 1 32 37 13 27 31 14
split_gain=484.235 133.816 48.4258 33.0226 22.4057 24.4665 20.4456 20.3928 19.6792 18.0472 16.1671 8.56838 8.53356 8.09696 6.76671
threshold=1.0000000180025095e-35 2.5000000000000004 883.50000000000011 125000.00000000001 75000.000000000015 4594.0000000000009 8680.0000000000018 326.50000000000006 2.5000000000000004 0.021251666666666672 0.0030211323763955347 1.5000000000000002 58084.500000000007 712.00000000000011 2271.5000000000005
decision_type=2 2 2 2 2 2 2 2 2 2 2 2 2 2 2
left_child=2 3 6 8 12 -6 10 -5 -2 -8 -1 14 -4 -13 -3
right_child=1 11 4 7 5 -7 9 -9 -10 -11 -12 13 -14 -15 -16
leaf_value=-0.0026734298307556177 0.0044929973706246181 0.0086669868494247699 -0.011072044913107287 0.0098230588273503089 -0.0096751786851593732 -0.026684802195499652 -0.029926784086877923 -0.0092980751734086063 0.020966945181031527 -0.0069596863111832958 0.021610006007210487 0 0.0171045412642893 0.042806317249968577 0.031473709702964724
leaf_weight=437.93951519578695 302.86744068562984 41.285761460661888 344.68681357800961 242.50669051706791 279.90539903193712 997.14236789941788 123.09112134575844 326.58531260490417 482.95394279062748 306.86855241656303 81.028320908546448 13.324626058340071 27.960954889655113 292.61531376838684 424.66453069448471
leaf_count=2887 1677 177 2410 1257 2139 8568 957 1782 2223 2232 536 54 202 1195 1704
internal_value=0 0.0175379 -0.0146343 0.00802811 -0.0198217 -0.0229918 -0.00556861 -0.00107093 0.0146749 -0.0136395 0.00103132 0.0341723 -0.00883711 0.0410659 0.0295495
internal_weight=0 2126.8 2598.62 1354.91 1649.7 1277.05 948.928 569.092 785.821 429.96 518.968 771.89 372.648 305.94 465.95
internal_count=30000 10069 19931 6939 13319 10707 6612 3039 3900 3189 3423 3130 2612 1249 1881
shrinkage=0.05


Tree=21
num_leaves=16
num_cat=0
split_feature=0 8 20 1 26 32 25 26 3 28 32 34 12 9 36
split_gain=439.377 121.858 45.0902 31.0021 28.2993 40.3002 25.8718 20.4732 20.2448 11.6034 11.3754 9.91666 8.0644 10.5169 6.85928
threshold=1.0000000180025095e-35 2.5000000000000004 2999.5000000000005 6.5000000000000009 6889.5000000000009 0.030304015151515155 7996.0000000000009 125920.00000000001 145000.00000000003 -1.0000000180025095e-35 0.021251666666666672 0.039809090909090912 1.5000000000000002 3.5000000000000004 0.24785000000000004
decision_type=2 2 2 2 2 2 2 2 2 2 2 2 2 2 2
left_child=2 3 4 6 9 -6 -2 8 -4 -1 -9 -5 14 -14 -3
right_child=1 12 7 11 5 -7 -8 10 -10 -11 -12 -13 13 -15 -16
leaf_value=-0.01079379530222562 0.0060199683334611733 0.028914501169279919 -0.016114952644587063 0.016515464550267679 -0.025981801397005334 -0.0027485622873057143 -0.023555401039927568 -0.036035351863508043 -0.032201177194154072 0.0034841091063940173 -0.0059149700793065287 0.03889655408031395 0.042787327769226391 0.01503967643226033 -0.0074282340095245987
leaf_weight=201.61794189363718 1013.5461572259665 438.93355840444565 350.9838383346796 191.18927237391472 390.45704255253077 366.72911233454943 79.302720293402672 37.008312255144119 489.77785526961088 480.06236656010151 255.07694637775421 74.486282959580421 274.31693650782108 45.057830438017845 11.365780919790266
leaf_count=1429 5351 1775 2786 815 3129 2558 461 327 4350 3163 2189 312 1125 184 46
internal_value=0 0.0166551 -0.0140573 0.0076063 -0.00813237 -0.0147886 0.00383265 -0.021543 -0.0255394 -0.000672798 -0.0098854 0.0229597 0.0325684 0.0390136 0.0278973
internal_weight=0 2128.2 2571.71 1358.52 1438.87 757.186 1092.85 1132.85 840.762 681.68 292.085 265.676 769.674 319.375 450.299
internal_count=30000 10069 19931 6939 10279 5687 5812 9652 7136 4592 2516 1127 3130 1309 1821
shrinkage=0.05


Tree=22
num_leaves=16
num_cat=0
split_feature=0 8 25 9 23 3 15 26 3 21 24 5 37 27 32
split_gain=398.693 110.894 43.6292 29.0258 24.7692 20.0779 22.2841 18.7091 18.0449 11.299 9.90647 7.88544 8.09961 7.81826 1.20557
threshold=1.0000000180025095e-35 2.5000000000000004 883.50000000000011 2.5000000000000004 700.50000000000011 75000.000000000015 4594.0000000000009 1.0000000180025095e-35 195000.00000000003 7162.0000000000009 5.5000000000000009 3.5000000000000004 0.039138134057971022 58084.500000000007 0.034404000000000011
decision_type=2 2 2 2 2 2 2 2 2 2 2 2 2 2 2
left_child=2 3 7 4 -2 13 -7 9 -9 -1 -5 12 -3 -4 -13
right_child=1 11 5 10 -6 6 -8 8 -10 -11 -12 14 -14 -15 -16
leaf_value=0.0082831874035509956 0.0096943661845424502 0.034189112216624927 -0.010245779963313613 0.028273681396058188 -0.007288383862099468 -0.0088082264517471889 -0.02520223245006474 -0.0046521615683667765 -0.024021806771264077 -0.02798665465955217 0.012167442657533929 -0.038508546753146911 0.020291867569688947 0.01668109094609168 0
leaf_weight=276.00111465901136 450.43713249266148 612.2227429151535 340.34621985256672 140.56224153935909 408.43641465902328 276.02353823930025 962.4583703354001 475.00917195528746 165.18636263906956 22.847699776291847 362.27507933974266 3.6649747043848029 148.52284616231918 28.089604780077934 3.0034665912389755
leaf_count=1755 2334 2497 2410 617 2334 2139 8568 3384 1284 189 1654 16 604 202 13
internal_value=0 0.0158188 -0.0135006 0.00720934 0.00156584 -0.0185143 -0.0215848 -0.00487321 -0.0097203 0.00535969 0.0167592 0.0310368 0.0315351 -0.00807073 -0.0190536
internal_weight=0 2129.12 2545.96 1361.71 858.874 1606.92 1238.48 939.044 640.196 298.849 502.837 767.414 760.746 368.436 6.66844
internal_count=30000 10069 19931 6939 4668 13319 10707 6612 4668 1944 2271 3130 3101 2612 29
shrinkage=0.05


Tree=23
num_leaves=16
num_cat=0
split_feature=1 8 22 3 26 3 14 14 0 29 21 20 13 9 14
split_gain=362.15 80.2301 72.6128 34.2916 27.9782 23.9078 20.3672 17.5948 14.2363 14.038 11.2111 10.2299 7.87739 7.83372 6.4561
threshold=1.5000000000000002 2.5000000000000004 581.50000000000011 145000.00000000003 210975.00000000003 125000.00000000001 6862.0000000000009 15853.000000000002 5.5000000000000009 -379.49999999999994 4988.0000000000009 2488.5000000000005 1.5000000000000002 4.5000000000000009 2271.5000000000005
decision_type=2 2 2 2 2 2 2 2 2 2 2 2 2 2 2
left_child=2 5 6 10 -5 7 9 -2 -7 -1 -4 -8 14 -14 -3
right_child=1 12 3 4 -6 8 11 -9 -10 -11 -12 -13 13 -15 -16
leaf_value=-0.0087415858910082269 0.023347633003899929 0.0050726535294912034 -0.0071957422640319723 -0.02569504642510087 0.00059504751368822371 -0.0048456032026498235 -0.0045087919570772463 0.0069980808333100514 0.037713261360485979 0.0092336156770409517 -0.022774534344306482 -0.028460351950517659 0.038196006570826557 2.9185032980870895e-05 0.02705563198018119
leaf_weight=136.2006169334054 281.4091738909483 41.849270775914192 794.91001597046852 932.02847589552402 109.78587930649519 333.93944370746613 141.91939528286457 423.82805080711842 20.749682709574699 501.7852164208889 139.98640559613705 69.241612255573273 284.03508630394936 16.594580143690109 422.57057800889015
leaf_count=893 1342 177 5911 8246 908 1762 1024 2082 87 2880 1179 556 1181 68 1704
internal_value=0 0.0172168 -0.0113573 -0.0166116 -0.0228814 0.00825116 0.000821008 0.0135858 -0.00222899 0.00532564 -0.00957656 -0.0125758 0.0295794 0.0362389 0.0251716
internal_weight=0 1824.98 2825.86 1976.71 1041.81 1059.93 849.147 705.237 354.689 637.986 934.896 211.161 765.05 300.63 464.42
internal_count=30000 8403 21597 16244 9154 5273 5353 3424 1849 3773 7090 1580 3130 1249 1881
shrinkage=0.05


Tree=24
num_leaves=16
num_cat=0
split_feature=0 8 25 3 14 32 18 1 21 26 20 5 27 29 33
split_gain=329.255 91.6951 38.8672 25.2898 18.8473 21.3893 18.3702 17.0349 17.0277 14.6781 23.0788 7.47619 11.5564 9.89088 6.64133
threshold=1.0000000180025095e-35 2.5000000000000004 1500.5000000000002 45000.000000000007 8680.0000000000018 0.029222500000000002 1.0000000180025095e-35 6.5000000000000009 6993.5000000000009 228600.00000000003 4901.0000000000009 2.5000000000000004 450.50000000000006 71943.000000000015 0.042483750000000008
decision_type=2 2 2 2 2 2 2 2 2 2 2 2 2 2 2
left_child=2 3 4 6 8 -6 -2 -5 -1 10 -4 12 -3 -13 -11
right_child=1 11 9 7 5 -7 -8 -9 -10 14 -12 13 -14 -15 -16
leaf_value=0.0024844636121221465 0.056768686096230127 0.0041828954599805656 -0.014138757534822303 -1.7899625134069932e-05 -0.024019520737920477 -0.0050375400667067652 0.014797434062812968 0.017338643494010278 -0.029917765539093234 0.0077547787958975774 -0.028701538336194127 0.024162320242455688 0.032920320160367667 -0.0057083143585727686 -0.027617271411341144
leaf_weight=562.08999629318714 29.812331169843674 41.230283930897713 674.70191123336554 880.31786946952343 239.96043241769075 410.39588044583797 289.64501836895943 167.25660632550716 43.686882369220257 70.4233593121171 480.50086813420057 138.58341553807259 550.50960020720959 31.779466807842255 16.257300786674023
leaf_count=3737 147 172 5606 4708 1990 3028 1377 707 361 575 4498 569 2258 131 136
internal_value=0 0.0143064 -0.0124539 0.00651606 -0.0061989 -0.0121105 0.0188551 0.0027103 7.34235e-05 -0.0187445 -0.020235 0.0282213 0.030994 0.0183261 0.000601464
internal_weight=0 2129.13 2498.02 1367.03 1256.13 650.356 319.457 1047.57 605.777 1241.88 1155.2 762.103 591.74 170.363 86.6807
internal_count=30000 10069 19931 6939 9116 5018 1524 5415 4098 10815 10104 3130 2430 700 711
shrinkage=0.05


Tree=25
num_leaves=16
num_cat=0
split_feature=0 8 21 9 22 5 32 23 15 3 3 12 22 14 29
split_gain=298.711 83.5724 36.4868 23.9495 22.4189 16.7576 20.2082 15.5597 14.9384 10.2114 8.79701 7.52181 9.82919 6.11631 4.20686
threshold=1.0000000180025095e-35 2.5000000000000004 1500.5000000000002 2.5000000000000004 1.0000000180025095e-35 1.5000000000000002 0.030304015151515155 2960.5000000000005 4594.0000000000009 13000.000000000002 265000.00000000006 1.5000000000000002 12000.500000000002 2271.5000000000005 -17236.999999999996
decision_type=2 2 2 2 2 2 2 2 2 2 2 2 2 2 2
left_child=2 3 7 4 -2 8 -7 9 -4 -1 -5 13 -13 -3 -9
right_child=1 11 5 10 -6 6 -8 14 -10 -11 -12 12 -14 -15 -16
leaf_value=0.029327481671815432 0.010454837474141492 0.0026337212270401054 -0.007403614145503082 0.016744415445140892 -0.0058363479090795638 -0.021026007268810938 -0.0064842674336373519 -0.001060892603240933 -0.027781913743497616 -0.0025530475719632065 -0.0070548585465249466 0.034701540423702 -0.01728725579176436 0.024307173027348635 -0.027728997668199674
leaf_weight=25.816916435956955 367.17112340033054 40.512640252709389 120.72223818302155 468.05520065128803 495.0512397736311 418.4882857054472 586.67824538052082 22.562055051326752 446.30522795766592 775.23332996666431 39.550962954759598 303.79651333391666 8.1994344741106016 406.65113604068756 79.610666289925575
leaf_count=167 1884 171 1007 2081 2784 3771 4858 185 4067 5222 190 1276 33 1650 654
internal_value=0 0.0135954 -0.0119474 0.00617793 0.00104894 -0.0165573 -0.0125833 -0.00387338 -0.0235227 -0.0014694 0.0148014 0.0269202 0.033191 0.0224442 -0.0222805
internal_weight=0 2128.99 2475.42 1369.83 862.222 1572.19 1005.17 903.223 567.027 801.05 507.606 759.16 311.996 447.164 102.173
internal_count=30000 10069 19931 6939 4668 13703 8629 6228 5074 5389 2271 3130 1309 1821 839
shrinkage=0.05


Tree=26
num_leaves=16
num_cat=0
split_feature=1 8 22 3 26 1 14 21 7 3 14 20 37 16 9
split_gain=271.04 60.7292 60.0823 30.9221 26.6138 20.125 16.4863 15.1108 13.4137 12.6273 11.9622 9.53662 7.40925 9.24691 8.62423
threshold=1.5000000000000002 2.5000000000000004 581.50000000000011 145000.00000000003 146870.00000000003 2.5000000000000004 6862.0000000000009 12259.000000000002 4.5000000000000009 125000.00000000001 110418.00000000001 2488.5000000000005 0.039138134057971022 6952.5000000000009 4.5000000000000009
decision_type=2 2 2 2 2 2 2 2 2 2 2 2 2 2 2
left_child=2 5 6 10 -5 7 8 -2 -1 -7 -4 -8 14 -14 -3
right_child=1 12 3 4 -6 9 11 -9 -10 -11 -12 -13 13 -15 -16
leaf_value=0.0041325479068279099 7.0359296491346768e-05 0.029319355447046405 -0.0095758928197395114 -0.025252420265821165 -0.0049412803688662649 0.016415193851297024 -0.0033908572780539555 -0.04378793655621966 0.067834234828197906 0.0013947591487906714 0.015755190477846622 -0.026855788668747493 -0.029242950198803006 0.018587722725884725 -0.0021077910335689887
leaf_weight=630.58556380867958 347.35572887957096 588.54781128466129 866.39842972904444 789.62051790952682 209.96633314341307 494.19506691396236 139.64537350088358 20.693433791399002 8.487857483327387 204.66521088778973 47.969498634338379 66.639578141272068 10.218384265899656 137.16752831637859 19.906469568610191
leaf_count=3728 1943 2440 6657 7248 1906 2223 1024 118 45 989 433 556 42 566 82
internal_value=0 0.0148269 -0.0100186 -0.0149236 -0.021031 0.0070869 0.00103331 -0.00227329 0.00504902 0.0120808 -0.00819776 -0.0111893 0.0256929 0.0149663 0.0282172
internal_weight=0 1822.75 2759.31 1913.95 999.587 1066.91 845.358 368.049 639.073 698.86 914.368 206.285 755.84 147.386 608.454
internal_count=30000 8403 21597 16244 9154 5273 5353 2061 3773 3212 7090 1580 3130 608 2522
shrinkage=0.05


Tree=27
num_leaves=16
num_cat=0
split_feature=0 8 14 32 21 20 23 3 29 4 34 21 13 31 37
split_gain=246.628 69.1376 34.2057 40.4441 28.6461 21.4534 19.0014 18.1336 13.8964 13.0341 12.6458 10.262 7.3221 7.53472 6.23024
threshold=1.0000000180025095e-35 2.5000000000000004 8449.0000000000018 0.030304015151515155 19792.500000000004 4422.0000000000009 2051.5000000000005 45000.000000000007 46859.000000000007 1.5000000000000002 0.022221111111111115 7684.5000000000009 1.5000000000000002 712.00000000000011 0.045463636363636373
decision_type=2 2 2 2 2 2 2 2 2 2 2 2 2 2 2
left_child=2 5 6 9 -5 7 11 -2 -7 -4 -8 -1 14 -14 -3
right_child=1 12 3 4 -6 8 10 -9 -10 -11 -12 -13 13 -15 -16
leaf_value=0.0028868067784118059 0.01895658801651727 0.02278005693802013 -0.01568472740938882 -0.0062073452023168147 -0.041957703299167849 -0.021189475118709732 -0.0050704862128193159 0.0045699486266530722 0.0029860593524538527 -0.03092608261948479 -0.02926172695323568 -0.021700457741545342 -0.0028555976427409244 0.032752803698009446 0.0056264724987843935
leaf_weight=614.11926307529211 303.49404811859131 390.51596836745739 241.97765906155109 845.90915472060442 60.705184772610664 109.14563326537609 133.49022177606821 836.4451342523098 124.58517956733704 394.79070599377155 97.62800782173872 45.38858388364315 13.250921860337256 279.46760343015194 69.670044541358948
leaf_count=4118 1422 1597 2207 6934 589 630 1162 4210 677 3641 887 393 54 1195 284
internal_value=0 0.0123078 -0.0109997 -0.0155098 -0.00865076 0.00559086 -0.00313345 0.00843968 -0.0081107 -0.0252049 -0.015484 0.00112643 0.0245031 0.0309871 0.0202809
internal_weight=0 2126.57 2434.01 1543.38 906.614 1373.67 890.626 1139.94 233.731 636.768 231.118 659.508 752.905 292.719 460.186
internal_count=30000 10069 19931 13371 7523 6939 6560 5632 1307 5848 2049 4511 3130 1249 1881
shrinkage=0.05


Tree=28
num_leaves=16
num_cat=0
split_feature=1 20 0 8 32 26 8 28 36 25 34 6 5 31 1
split_gain=225.212 58.2186 27.6359 25.1777 19.8488 19.1654 18.0705 16.4955 9.91577 9.53687 8.52093 7.53056 8.66831 4.74277 3.21967
threshold=3.5000000000000004 2999.5000000000005 1.0000000180025095e-35 2.5000000000000004 0.021251666666666672 6889.5000000000009 2.5000000000000004 -1.0000000180025095e-35 0.06001666666666667 15001.500000000002 0.040471428571428582 1.5000000000000002 1.5000000000000002 -9.4999999999999982 5.5000000000000009
decision_type=2 2 2 2 2 2 2 2 2 2 2 2 2 2 2
left_child=1 2 5 4 -3 -1 9 -4 -5 10 -2 13 -13 -8 -11
right_child=6 3 7 8 -6 -7 11 -9 -10 14 -12 12 -14 -15 -16
leaf_value=0.00053257054323138176 0.0095008779343208217 -0.030079326406481473 -0.010047010031532241 0.019406557664751935 -0.013450393738012734 -0.011198229721837982 -0.00075726032725269288 0.010095577237093565 -0.036608093597526835 -0.060299525666134182 0.024003203514230829 0.033039702694089283 0.013743955788006813 0.032864795511729321 0
leaf_weight=668.3073952421546 395.78302973508835 226.01669192314148 120.53622034192085 68.415609642863274 1014.0024987980723 711.36910679191351 8.2014788091182691 592.67781586945057 8.4602826684713346 5.5741128921508771 146.73682008683681 89.401119872927666 212.48078218102455 268.20052891969681 3.844888910651207
leaf_count=4592 1771 2151 658 280 8745 5687 34 2960 35 30 647 375 891 1127 17
internal_value=0 -0.00654056 -0.0013344 -0.0147803 -0.0165176 -0.00548328 0.0192134 0.0066283 0.0126567 0.0125796 0.0135063 0.0254672 0.0196074 0.0317043 -0.0360169
internal_weight=0 3409.79 2092.89 1316.9 1240.02 1379.68 1130.22 713.214 76.8759 551.939 542.52 578.284 301.882 276.402 9.419
internal_count=30000 25108 13897 11211 10896 10279 4892 3618 315 2465 2418 2427 1266 1161 47
shrinkage=0.05


Tree=29
num_leaves=16
num_cat=0
split_feature=1 20 22 32 8 32 5 8 36 31 14 9 19 24 34
split_gain=203.837 53.4943 26.2523 25.1673 23.007 18.7747 17.9969 16.7345 8.97762 8.96911 9.21225 7.48268 9.91282 8.3051 6.62122
threshold=3.5000000000000004 2999.5000000000005 801.00000000000011 0.035320714285714296 2.5000000000000004 0.021251666666666672 3.5000000000000004 2.5000000000000004 0.06001666666666667 -617.99999999999989 737.50000000000011 3.5000000000000004 134927.50000000003 20647.500000000004 0.040471428571428582
decision_type=2 2 2 2 2 2 2 2 2 2 2 2 2 2 2
left_child=1 2 6 -4 5 -3 -1 9 -6 10 -2 13 -13 -9 -11
right_child=7 4 3 -5 8 -7 -8 11 -10 14 -12 12 -14 -15 -16
leaf_value=0.0056154260808258692 0.055328675019089203 -0.029246501215475645 -0.011474885437773901 0.0047188971460700828 0.018476615235088378 -0.012904968669923836 -0.050433172683636708 0.027163851504400701 -0.034733928094666765 0.0097111306708885497 -0.029014945661055298 0 0.056064161299194643 -0.027904386281516421 0.022697442461919036
leaf_weight=953.63485214859247 3.4934009611606625 220.96043320000172 779.17840817570686 342.02922037243843 68.269839227199554 1004.2699021100998 14.399996742606161 503.38077719509602 8.4706465899944288 382.40730486810207 22.534002915024757 56.784510523080826 9.0573852360248548 6.1354127675294867 145.25007702410221
leaf_count=5699 16 2151 5831 2278 280 8745 89 2126 35 1705 106 238 38 25 638
internal_value=0 -0.00625097 -0.00126991 -0.00649477 -0.0142094 -0.0158888 0.00473519 0.0182767 0.0120168 0.0119109 -0.0159654 0.0243244 0.00748319 0.0264124 0.0133712
internal_weight=0 3391.21 2089.24 1121.21 1301.97 1225.23 968.035 1129.04 76.7405 553.685 26.0274 575.358 65.8419 509.516 527.657
internal_count=30000 25108 13897 8109 11211 10896 5788 4892 315 2465 122 2427 276 2151 2343
shrinkage=0.05


Tree=30
num_leaves=16
num_cat=0
split_feature=0 8 25 3 25 3 26 26 3 27 21 27 5 27 29
split_gain=188.965 52.6055 29.5332 17.5489 15.2369 14.9911 19.5103 13.546 15.9139 12.6488 7.97076 7.58022 7.00873 9.97317 9.20147
threshold=1.0000000180025095e-35 2.5000000000000004 883.50000000000011 125000.00000000001 326.50000000000006 75000.000000000015 128318.50000000001 1.0000000180025095e-35 195000.00000000003 -8086.9999999999991 7162.0000000000009 45575.500000000007 2.5000000000000004 450.50000000000006 71943.000000000015
decision_type=2 2 2 2 2 2 2 2 2 2 2 2 2 2 2
left_child=2 3 7 9 -5 11 -7 10 -9 -2 -1 -4 13 -3 -14
right_child=1 12 5 4 -6 6 -8 8 -10 -11 -12 -13 14 -15 -16
leaf_value=0.0084556948801294725 -0.036809504475308653 0 -0.009561415909836099 0.0075193946953435262 -0.008955094310839155 -0.020466145800351349 -0.0041891033739665786 -0.0021166340290055372 -0.020840131838042196 0.010527819033603768 -0.023414274723621144 0.0066818349004876629 0.017681252484576093 0.02599186638367712 -0.011678275436387317
leaf_weight=274.72255585342646 13.964283570647238 41.355177521705627 255.19627215713263 246.31479695439339 323.05856937170029 880.88466542214155 242.03615200519562 457.74847596883774 154.02945785969496 793.96117115020752 20.49543084949255 96.662690341472626 135.52017119526863 535.18747122585773 31.304397821426392
leaf_count=1755 73 172 1894 1257 1782 8396 2311 3384 1284 3827 189 718 569 2258 131
internal_value=0 0.0107351 -0.00978563 0.00490727 -0.00174908 -0.014159 -0.0169978 -0.00262492 -0.00690427 0.00965394 0.0060907 -0.00497118 0.0214724 0.0241635 0.0119022
internal_weight=0 2120.67 2381.78 1377.3 569.373 1474.78 1122.92 906.996 611.778 807.925 295.218 351.859 743.367 576.543 166.825
internal_count=30000 10069 19931 6939 3039 13319 10707 6612 4668 3900 1944 2612 3130 2430 700
shrinkage=0.05


Tree=31
num_leaves=16
num_cat=0
split_feature=0 8 14 32 21 3 20 1 18 4 25 5 37 16 9
split_gain=171.329 47.9925 28.3764 36.1303 26.9991 16.7988 15.6975 15.2669 14.0452 12.8318 11.4205 10.162 6.44064 7.91533 7.82843
threshold=1.0000000180025095e-35 2.5000000000000004 8449.0000000000018 0.030304015151515155 19792.500000000004 25000.000000000004 4569.5000000000009 5.5000000000000009 161.50000000000003 1.5000000000000002 500.50000000000006 3.5000000000000004 0.039138134057971022 6952.5000000000009 4.5000000000000009
decision_type=2 2 2 2 2 2 2 2 2 2 2 2 2 2 2
left_child=2 5 6 9 -5 8 11 -7 -2 -4 -8 -1 14 -14 -3
right_child=1 12 3 4 -6 7 10 -9 -10 -11 -12 -13 13 -15 -16
leaf_value=0.0015732884029610863 0.056233738025998209 0.023937924866119502 -0.013422544673961052 -0.0047050859168496963 -0.040466795213123706 -0.00064683017865200187 0.0029711253253992416 0.012891419699446302 0.013121066079796085 -0.028885085213044021 -0.026522576407053002 -0.044796207755634899 -0.030700173214126675 0.013897163292893032 -0.0064714392872577565
leaf_weight=719.18871320039034 22.332825750112534 575.74673692882061 231.5223771110177 826.00256261974573 56.945882692933083 917.28549031168222 44.764627642929554 267.43912023305893 172.38813059031963 372.85001143813133 101.13556813448668 11.979069240391253 10.186736866831778 134.50002600252628 19.579272225499153
leaf_count=5099 105 2440 2207 6934 589 4912 372 1128 794 3641 1003 86 42 566 82
internal_value=0 0.010205 -0.00937145 -0.0135837 -0.00706251 0.00465195 -0.00217714 0.0023713 0.0182968 -0.0230362 -0.017165 0.00075205 0.0204955 0.0104463 0.0228622
internal_weight=0 2119.46 2364.39 1487.32 882.948 1379.45 877.068 1184.72 194.721 604.372 145.9 731.168 740.013 144.687 595.326
internal_count=30000 10069 19931 13371 7523 6939 6560 6040 899 5848 1375 5185 3130 608 2522
shrinkage=0.05


Tree=32
num_leaves=16
num_cat=0
split_feature=1 22 3 26 21 8 5 8 31 14 6 5 16 7 31
split_gain=156.862 44.6338 31.2939 35.4248 19.4048 17.6689 13.4 11.9344 9.59482 8.96325 7.09753 7.99105 4.74497 4.4205 4.28084
threshold=2.5000000000000004 801.00000000000011 145000.00000000003 146870.00000000003 4901.0000000000009 2.5000000000000004 3.5000000000000004 2.5000000000000004 -617.99999999999989 15853.000000000002 1.5000000000000002 1.5000000000000002 333.50000000000006 2.5000000000000004 -3760.4999999999995
decision_type=2 2 2 2 2 2 2 2 2 2 2 2 2 2 2
left_child=1 4 7 -4 6 8 -1 -3 12 -10 14 -12 -2 -6 -7
right_child=5 2 3 -5 13 10 -8 -9 9 -11 11 -13 -14 -15 -16
leaf_value=0.0050327699947887916 0.017897359090127716 -0.0059369526376846955 -0.021636836894123906 0.00036170292672658901 -0.024412754884479464 -0.019617726791459261 -0.041117458247773547 0.012784760657294437 0.018421718746014167 0.006176349620957187 0.028618549001998946 0.0099980280827281515 -0.024525393512038425 -9.2709357551645012e-05 0.028247592880048029
leaf_weight=982.2622025758028 7.2268132865428916 969.02965126186609 791.86637385189533 232.80749657005072 77.392601422965527 3.6390827298164359 15.798078425228594 91.997796908020973 246.08233021199703 425.1101691275835 87.477322190999985 208.920399710536 29.661731228232384 29.593567244708538 266.78525893390179
leaf_count=6015 35 7494 7502 2069 574 15 104 379 1101 1932 375 891 144 224 1146
internal_value=0 -0.00603914 -0.0103472 -0.0165948 0.00205133 0.0147091 0.00425718 -0.00427125 0.00932911 0.010733 0.0213505 0.0156454 -0.0149945 -0.0181062 0.0274371
internal_weight=0 3190.75 2085.7 1024.67 1105.05 1274.9 998.06 1061.03 708.081 671.192 566.822 296.398 36.8885 106.986 270.424
internal_count=30000 24361 17444 9571 6917 5639 6119 7873 3212 3033 2427 1266 179 798 1161
shrinkage=0.05


Tree=33
num_leaves=16
num_cat=0
split_feature=0 8 21 28 33 14 28 21 5 16 5 27 29 32 25
split_gain=143.528 39.8452 26.0663 22.3026 17.0815 26.8449 15.7326 17.4576 11.4878 8.53023 6.46526 9.01681 8.40753 6.2416 6.10982
threshold=1.0000000180025095e-35 2.5000000000000004 4988.0000000000009 197480.00000000003 0.04000263157894738 6862.0000000000009 -3034.4999999999995 15001.000000000002 1.5000000000000002 7162.5000000000009 2.5000000000000004 450.50000000000006 71943.000000000015 0.035320714285714296 300.50000000000006
decision_type=2 2 2 2 2 2 2 2 2 2 2 2 2 2 2
left_child=2 6 4 9 5 -1 14 -8 -6 -4 11 -3 -12 -5 -2
right_child=1 10 3 13 8 -7 7 -9 -10 -11 12 -13 -14 -15 -16
leaf_value=-0.00028178090222240543 0 -6.7763296928562435e-05 -0.0025088561261486374 -0.0090939420198647147 -0.014669656733086789 -0.014367936587745544 0.0065588144775393003 -0.026402188242508451 0.0093375227761197145 -0.023614504511524748 0.015142433887612284 0.02311935320495305 -0.01308829491013659 0.015892665852707592 -0.031346986372669652
leaf_weight=638.63676721602678 24.771861970424652 41.353706583380699 58.606937244534492 44.422570914030075 60.122339747846127 735.32004404813051 1274.3706896975636 40.992637239396572 266.98770793527365 476.40331116318703 134.04478421807289 527.28649605810642 31.155635550618172 53.946496106684208 40.845533885061741
leaf_count=4512 137 172 560 399 454 6666 6324 237 1947 4910 569 2258 131 483 241
internal_value=0 0.00932397 -0.00865843 -0.0173493 -0.005396 -0.00785322 0.00427871 0.00549739 0.00478747 -0.0213866 0.0187571 0.021354 0.00954592 0.00415148 -0.019465
internal_weight=0 2114.82 2334.45 633.379 1701.07 1373.96 1380.98 1315.36 327.11 535.01 733.841 568.64 165.2 98.3691 65.6174
internal_count=30000 10069 19931 6352 13579 11178 6939 6561 2401 5470 3130 2430 700 882 378
shrinkage=0.05


Tree=34
num_leaves=16
num_cat=0
split_feature=1 22 3 26 21 8 29 28 31 14 37 26 31 26 16
split_gain=131.08 38.8662 27.7704 32.5982 17.1125 14.6159 12.6352 10.9251 8.46411 8.02859 7.46237 7.2965 13.5054 8.03822 4.36191
threshold=2.5000000000000004 801.00000000000011 145000.00000000003 146870.00000000003 3101.0000000000005 2.5000000000000004 -379.49999999999994 129618.50000000001 -617.99999999999989 15853.000000000002 0.0038309523809523815 17548.000000000004 30672.500000000004 2257.5000000000005 333.50000000000006
decision_type=2 2 2 2 2 2 2 2 2 2 2 2 2 2 2
left_child=1 4 7 -4 6 8 -1 -3 14 -10 -6 13 -13 -7 -2
right_child=5 2 3 -5 10 11 -8 -9 9 -11 -12 12 -14 -15 -16
leaf_value=-0.0074757751496736169 0.016892139440620461 -0.0044799707975966361 -0.020529890197925046 0.00068391790483784737 0 0.010224209922532451 0.0072721488283928534 0.043757338388109836 0.017130969269193639 0.0055653030355349445 -0.022702163860050563 0.0024031933056873258 0.022335126719309494 0.035539805143276024 -0.023594043241938902
leaf_weight=175.8682017326355 7.2760374993085852 1040.5316212698817 772.47033286094666 231.24216855317354 63.183052472770214 49.779424726963043 775.57810172438622 11.716900676488875 247.63544164597988 426.5464781075716 90.122003667056561 135.88058222830296 253.67195190489292 121.76073212921619 29.3890370875597
leaf_count=1166 35 7776 7502 2069 462 208 4629 97 1101 1932 660 582 1107 530 144
internal_value=0 -0.00556463 -0.00963269 -0.0155977 0.00196536 0.0134434 0.0044988 -0.00390008 0.00856808 0.00988026 -0.0134642 0.0195398 0.0154981 0.0284558 -0.0143324
internal_weight=0 3160.71 2055.96 1003.71 1104.75 1271.94 951.446 1052.25 710.847 674.182 153.305 561.093 389.553 171.54 36.6651
internal_count=30000 24361 17444 9571 6917 5639 5795 7873 3212 3033 1122 2427 1689 738 179
shrinkage=0.05


Tree=35
num_leaves=16
num_cat=0
split_feature=0 1 20 14 26 32 5 3 25 32 15 21 36 30 33
split_gain=121.132 34.6247 24.2026 25.2256 20.2045 35.229 15.3656 14.2287 12.9624 11.8296 11.36 8.89842 7.31673 3.48398 2.95369
threshold=1.0000000180025095e-35 5.5000000000000009 4901.0000000000009 133187.50000000003 6889.5000000000009 0.030304015151515155 3.5000000000000004 25000.000000000004 1500.5000000000002 0.021251666666666672 8778.5000000000018 15001.000000000002 0.038004545454545464 114136.00000000001 0.053240476190476192
decision_type=2 2 2 2 2 2 2 2 2 2 2 2 2 2 2
left_child=2 6 4 8 10 -6 7 -2 -4 -5 -1 12 -3 -13 -8
right_child=1 11 3 9 5 -7 14 -9 -10 -11 -12 13 -14 -15 -16
leaf_value=0.00059990697538356611 0.018441640464913152 0.020443307376517283 -0.01033456946447959 -0.036923748388953952 -0.019837107254737606 -0.00024861703301920041 -0.061627942849416598 0.0022101638160701579 -0.030108318710264627 0.00015620691579751246 0.055385550970442933 -0.062469601021522152 0.0088100715403262378 0 0
leaf_weight=721.14890233427286 154.7066440731287 578.7714731246233 130.01867581903934 23.584020763635635 445.00272840261459 483.797397531569 10.534105539321898 1155.0413315594196 275.81752402335405 218.8453745469451 9.6295012161135656 4.1368986517190915 196.71446415781975 7.0790716260671616 3.4975757598876944
leaf_count=5175 729 2489 1186 256 4374 3736 55 5894 3010 2118 76 19 836 31 16
internal_value=0 0.00855283 -0.00802117 -0.0162429 -0.00478247 -0.00968222 0.00357256 0.00416177 -0.0238842 -0.00326538 0.0013834 0.0168759 0.0175504 -0.0257452 -0.0482188
internal_weight=0 2110.48 2307.84 648.266 1659.58 928.8 1323.78 1309.75 405.836 242.429 730.778 786.702 775.486 11.216 14.0317
internal_count=30000 10069 19931 6570 13361 8110 6694 6623 4196 2374 5251 3375 3325 50 71
shrinkage=0.05


Tree=36
num_leaves=16
num_cat=0
split_feature=8 21 1 21 15 23 3 5 7 28 9 28 30 28 32
split_gain=111.598 34.3976 24.4716 16.3699 16.6689 15.1614 12.9402 12.6862 12.4592 10.185 10.8839 7.93046 7.55779 5.6902 2.1867
threshold=1.5000000000000002 1600.5000000000002 5.5000000000000009 19792.500000000004 283257.00000000006 2200.5000000000005 25000.000000000004 3.5000000000000004 2.5000000000000004 13425.500000000002 4.5000000000000009 652.50000000000011 1472.5000000000002 -1849.4999999999998 0.038467948717948723
decision_type=2 2 2 2 2 2 2 2 2 2 2 2 2 2 2
left_child=1 5 7 4 -3 6 -1 8 -2 13 -11 -7 -5 -4 -9
right_child=2 3 9 12 -6 11 -8 14 -10 10 -12 -13 -14 -15 -16
leaf_value=0.015415484685361986 0.0020670124228047235 -0.0099304916184222453 -0.019146377161945595 -0.0062520223135382304 0.021978813231015845 -0.022224937206081555 0.00033156596675979443 -0.060594793345240372 0.015936297864194451 0.016513821052612006 -0.013346483333830102 -0.0013421743172790258 -0.035446980479055243 0.031500601804353566 0
leaf_weight=170.86555835604668 590.39585439115763 1492.4637419581413 4.6370408385992041 34.381921522319317 41.235189452767372 100.09359136223793 887.75866027921438 8.2827107161283475 228.45610181987286 475.8578614294529 30.92511710524559 92.254960477352142 92.928747579455376 150.71937626600266 2.8805763870477668
leaf_count=1023 2829 13200 19 352 346 833 5839 42 1088 2054 130 634 955 642 14
internal_value=0 -0.00579972 0.0110162 -0.0105169 -0.00904323 0.000427611 0.00280867 0.00522087 0.00599144 0.0182129 0.0146029 -0.012443 -0.027916 0.0296992 -0.0472712
internal_weight=0 2911.98 1492.15 1661.01 1533.7 1250.97 1058.62 830.015 818.852 662.139 506.783 192.349 127.311 155.356 11.1633
internal_count=30000 23182 6818 14853 13546 8329 6862 3973 3917 2845 2184 1467 1307 661 56
shrinkage=0.05


Tree=37
num_leaves=16
num_cat=0
split_feature=1 23 8 3 15 21 14 3 20 3 28 37 16 9 3
split_gain=101.869 32.9348 24.3258 20.6032 18.7213 13.7488 12.27 11.5631 20.0333 12.2385 10.238 6.2473 6.96954 6.92026 1.87854
threshold=1.5000000000000002 1.0000000180025095e-35 2.5000000000000004 145000.00000000003 5590.5000000000009 15001.000000000002 15853.000000000002 315000.00000000006 1.0000000180025095e-35 25000.000000000004 127204.00000000001 0.039138134057971022 6952.5000000000009 4.5000000000000009 75000.000000000015
decision_type=2 2 2 2 2 2 2 2 2 2 2 2 2 2 2
left_child=1 7 5 10 -5 6 -2 9 -9 -1 -3 13 -13 -4 -7
right_child=2 3 11 4 -6 14 -8 8 -10 -11 -12 12 -14 -15 -16
leaf_value=0.025264890971811373 0.011616675355059338 -0.0050088564409923155 0.019528636698305561 -0.0058562076660721631 -0.020170897834375791 -0.061010236019553112 0.00056416813925892393 0.036591705197236771 -0.0073424930823295896 -0.0019252705708451192 0.040548651706274599 -0.032704643247066942 0.0095929422887697739 -0.0093958438895454469 -0.020382712090965465
leaf_weight=45.150012858211994 435.47147051990032 941.71394792199135 561.64602820575237 380.16193170845509 614.57755519449711 5.4497195333242443 614.82324454188347 62.591851703822613 41.824517719447613 490.70925462990999 12.299934118986128 10.142855927348135 131.53322499990463 19.329054594039917 23.34877060353756
leaf_count=275 2077 7555 2440 3079 6704 28 3037 344 339 3191 110 42 566 82 131
internal_value=0 -0.00645294 0.00902949 -0.00969135 -0.0147455 0.00421854 0.00518959 0.00333327 0.0185627 0.00028172 -0.00437432 0.0161511 0.00624715 0.0184889 -0.0296335
internal_weight=0 2589.03 1801.74 1948.75 994.739 1079.09 1050.29 640.276 104.416 535.859 954.014 722.651 141.676 580.975 28.7985
internal_count=30000 21597 8403 17448 9783 5273 5114 4149 683 3466 7665 3130 608 2522 159
shrinkage=0.05


Tree=38
num_leaves=16
num_cat=0
split_feature=8 21 1 6 3 28 23 34 28 29 19 28 9 30 15
split_gain=92.6131 29.4119 21.5702 16.2097 15.3428 14.1243 13.5954 12.2239 11.9497 10.2365 9.56836 9.06783 9.38201 8.11301 5.28651
threshold=1.5000000000000002 1600.5000000000002 5.5000000000000009 1.5000000000000002 305000.00000000006 223434.00000000003 2960.5000000000005 0.056683333333333343 -1.0000000180025095e-35 -99.499999999999986 -51.499999999999993 13425.500000000002 4.5000000000000009 9530.0000000000018 416.50000000000006
decision_type=2 2 2 2 2 2 2 2 2 2 2 2 2 2 2
left_child=1 6 8 4 -3 -5 7 -1 10 -10 -2 14 -13 -8 -4
right_child=2 3 11 5 -6 -7 13 -9 9 -11 -12 12 -14 -15 -16
leaf_value=0.0004144350555310278 0.030696123611353661 -0.00046502640166248789 0 -0.015617999951565226 -0.018514125736289057 0.014689846867736112 -0.025589263111944205 0.016595555626518866 -0.011575615306259997 0.0090180098826611547 -0.01506753420372843 0.015187213799999745 -0.012458659116043175 -0.0022097917148749752 0.030540562245893861
leaf_weight=957.675850905478 12.254237443208693 590.53525066375732 13.203247949481009 859.79066993296146 148.84909553825855 38.708850368857384 72.643740840256214 133.99594028294086 64.71598706394434 647.2005917802453 106.15407521277666 472.81252309679985 31.015011668205261 85.44455198943615 141.16986905038357
leaf_count=6269 62 5221 54 7748 1544 340 600 826 344 2974 593 2054 130 634 607
internal_value=0 -0.00531994 0.0100331 -0.00972902 -0.00415944 -0.0142622 0.000422415 0.00244179 0.00459942 0.00708276 -0.00995135 0.0168194 0.0133961 -0.0132376 0.0277009
internal_weight=0 2887.64 1488.53 1637.88 739.384 898.5 1249.76 1091.67 830.325 711.917 118.408 658.201 503.828 158.088 154.373
internal_count=30000 23182 6818 14853 6765 8088 8329 7095 3973 3318 655 2845 2184 1234 661
shrinkage=0.05


Tree=39
num_leaves=16
num_cat=0
split_feature=1 24 8 30 16 7 26 3 21 14 24 5 26 34 3
split_gain=85.3788 28.5621 20.4457 15.2803 16.8451 14.3707 13.8657 20.7007 12.3989 11.0437 8.05991 5.91551 8.34852 8.24824 1.78195
threshold=1.5000000000000002 1149.5000000000002 2.5000000000000004 196.00000000000003 290.50000000000006 3.5000000000000004 210975.00000000003 265000.00000000006 15001.000000000002 15853.000000000002 3000.5000000000005 2.5000000000000004 2257.5000000000005 0.0045550505050505055 75000.000000000015
decision_type=2 2 2 2 2 2 2 2 2 2 2 2 2 2 2
left_child=1 3 8 5 -5 -1 7 -3 9 -2 -8 12 -4 -13 -10
right_child=2 6 11 4 -6 -7 10 -9 14 -11 -12 13 -14 -15 -16
leaf_value=0.0024940357095972498 0.010857885334981353 -0.0089839181233554253 0 -0.029128520227795152 -0.0031861827847123043 0.03063793601304295 0.063928941440405271 -0.02472202974046522 -0.059649399054097788 0.00038096976922437207 0.0024163508470454332 0.024775987576184561 0.019478793114891865 -0.0004241093979500054 -0.019455449647881234
leaf_weight=600.80784808844328 436.96782952547073 909.08089645206928 60.744251549243927 71.544271290302277 556.94092080742121 49.683741070330143 5.8172215223312369 279.12252422422171 5.2913604378700283 614.8197827488184 92.891950696706772 43.031249180436134 494.26932799816132 118.9866778254509 23.052725613117218
leaf_count=3777 2077 8560 256 511 4546 295 53 3021 28 3037 834 186 2174 514 131
internal_value=0 -0.00594885 0.00826197 -0.00061991 -0.00621096 0.00471281 -0.01121 -0.0127189 0.00386031 0.00477642 0.00649735 0.0148299 0.0173289 0.00599118 -0.0285466
internal_weight=0 2565.89 1797.16 1278.98 628.485 650.492 1286.91 1188.2 1080.13 1051.79 98.7092 717.032 555.014 162.018 28.3441
internal_count=30000 21597 8403 9129 5057 4072 12468 11581 5273 5114 887 3130 2430 700 159
shrinkage=0.05


Tree=40
num_leaves=16
num_cat=0
split_feature=1 20 14 5 22 32 20 31 14 36 6 16 35 26 16
split_gain=78.0938 31.406 20.9448 17.0914 15.402 14.8287 12.0135 10.3865 7.33321 6.72638 7.44633 6.65117 4.89384 3.26849 2.12952
threshold=3.5000000000000004 2999.5000000000005 97102.500000000015 3.5000000000000004 684.50000000000011 0.023543088235294121 4569.5000000000009 -617.99999999999989 737.50000000000011 0.080012000000000014 1.5000000000000002 138.50000000000003 0.12025882352941178 48873.500000000007 484.50000000000006
decision_type=2 2 2 2 2 2 2 2 2 2 2 2 2 2 2
left_child=1 3 6 4 -1 -4 -3 8 14 10 -9 -10 -11 -5 -2
right_child=7 2 5 13 -6 -7 -8 9 11 12 -12 -13 -14 -15 -16
leaf_value=0.0051891574242304856 0 -0.0078176507030611846 -0.022019666739788991 -0.045446967219819959 -0.0036054526046135518 0.0025278519721495273 -0.02079267586008697 0.018149446820873678 0.03226291155541107 0.0010467620371897566 0.0091967753016541712 -0.031662514057342335 -0.050996749544840715 0 0.063852091048556783
leaf_weight=900.62343321740627 3.9088309258222571 321.57245218008757 73.832513436675072 24.594972431659702 1111.2677426487207 360.56663217395544 444.69101259112358 464.14998404681683 4.0192774087190619 68.980877444148064 529.37251487374306 30.430073335766792 4.7573478668928137 3.7447350695729247 3.0058656930923462
leaf_count=5343 17 2787 800 181 8343 3305 4319 2053 17 298 2334 140 20 30 13
internal_value=0 -0.00401026 -0.0104272 -0.000211871 0.000309089 -0.00154077 -0.0154063 0.011363 -0.0126896 0.0123374 0.0134245 -0.0228979 -0.00170065 -0.0387837 0.0316609
internal_weight=0 3240.89 1200.66 2040.23 2011.89 434.399 766.263 1108.62 41.364 1067.26 993.522 34.4494 73.7382 28.3397 6.9147
internal_count=30000 25108 11211 13897 13686 4105 7106 4892 187 4705 4387 157 318 211 30
shrinkage=0.05


Tree=41
num_leaves=15
num_cat=0
split_feature=8 21 28 3 14 27 6 13 14 29 32 15 21 28
split_gain=72.4212 25.8048 17.5735 16.6881 24.4212 15.9992 15.8952 12.6778 10.6599 10.2864 8.294 7.98984 9.22512 7.73716
threshold=1.5000000000000002 4988.0000000000009 -1.0000000180025095e-35 65000.000000000007 8680.0000000000018 162361.00000000003 1.5000000000000002 1.5000000000000002 3801.5000000000005 -99.499999999999986 0.035320714285714296 44957.500000000007 326.50000000000006 13425.500000000002
decision_type=2 2 2 2 2 2 2 2 2 2 2 2 2 2
left_child=1 3 11 6 -5 8 -1 9 -3 -4 -7 12 -2 -9
right_child=2 5 7 4 -6 10 -8 13 -10 -11 -12 -13 -14 -15
leaf_value=0.012519007544226871 -0.001043005404886363 -0.0013247187537500753 -0.011300917638423566 0.00099927081662377166 -0.012393307201577979 -0.012084589087345575 -0.0018249836549056057 0.030795604066034106 -0.020580661490445337 0.008750527904540794 0.0105784348091022 0.06698409720016367 -0.030875198445817903 0.013918765938051515
leaf_weight=310.72733419388533 83.122464865446091 91.973459526896477 67.111523680388927 699.35190898925066 652.87335278838873 72.215791150927544 499.36080504953861 95.681177720427513 439.94370373338461 874.25707161426544 91.169538237154484 3.2261143624782553 40.031204402446747 318.15399107336998
leaf_count=2027 446 847 353 4896 6041 695 3262 426 4572 3929 842 16 230 1418
internal_value=0 -0.00473933 0.00888245 -0.0020204 -0.00543358 -0.0131302 0.00362142 0.0105605 -0.0173357 0.00727323 0.000286028 -0.00875591 -0.0111054 0.0179295
internal_weight=0 2857.62 1481.58 2162.31 1352.23 695.302 810.088 1355.2 531.917 941.369 163.385 126.38 123.154 413.835
internal_count=30000 23182 6818 16226 10937 6956 5289 6126 5419 4282 1537 692 676 1844
shrinkage=0.05


Tree=42
num_leaves=16
num_cat=0
split_feature=1 25 8 26 7 3 5 14 3 14 1 15 37 9 16
split_gain=67.0219 24.4563 16.5246 13.0981 14.3889 14.0276 12.059 14.7875 11.4124 10.2593 10.0016 9.47795 5.70977 6.11305 5.94266
threshold=1.5000000000000002 883.50000000000011 2.5000000000000004 1.0000000180025095e-35 3.5000000000000004 195000.00000000003 1.5000000000000002 310634.50000000006 245000.00000000003 15853.000000000002 6.5000000000000009 4594.0000000000009 0.039138134057971022 3.5000000000000004 6952.5000000000009
decision_type=2 2 2 2 2 2 2 2 2 2 2 2 2 2 2
left_child=1 3 8 4 -1 -5 11 -8 9 -2 -10 -3 13 -4 -14
right_child=2 6 12 5 -6 -7 7 -9 10 -11 -12 -13 14 -15 -16
leaf_value=0.0033759062548792762 0.011383076619477645 -0.0053661042184014003 0.017065162741402625 -0.00036311927517110196 0.033613297145551217 -0.018285621000280913 -0.0071728500407537855 0.034218420560287836 -0.017299310536475508 0.00081292371232128443 0.028519205211235295 -0.020492054918801406 -0.032407137507175089 -0.00099452183449882979 0.0069421969562094496
leaf_weight=480.85152360796928 393.43448066711426 159.48716226220131 523.62442065775394 447.36170791089535 43.543496459722519 146.79769123345613 884.50870344787836 21.778370127081871 99.035181656479836 575.55493208765984 12.887568801641462 352.31692633032799 10.096681803464888 46.330415174365044 129.48285108804703
leaf_count=2893 1844 1325 2318 3396 246 1302 8427 187 549 2826 54 3821 42 204 566
internal_value=0 -0.00531392 0.00732054 0.000174527 0.0059725 -0.00486693 -0.0096748 -0.00612855 0.00337278 0.00515112 -0.0116214 -0.0158665 0.0132712 0.0155182 0.00377341
internal_weight=0 2536.65 1790.45 1118.55 524.395 594.159 1418.09 906.287 1080.91 968.989 111.923 511.804 709.534 569.955 139.58
internal_count=30000 21597 8403 7837 3139 4698 13760 8614 5273 4670 603 5146 3130 2522 608
shrinkage=0.05


Tree=43
num_leaves=16
num_cat=0
split_feature=1 23 3 15 8 21 3 25 3 28 21 5 29 26 3
split_gain=60.6798 22.8029 17.1575 15.7932 15.0201 10.8812 10.5983 16.4169 10.7051 10.1289 9.9377 5.46605 7.49811 7.37326 1.73337
threshold=1.5000000000000002 1.0000000180025095e-35 145000.00000000003 5590.5000000000009 2.5000000000000004 15001.000000000002 315000.00000000006 25.500000000000004 25000.000000000004 -3034.4999999999995 10071.500000000002 2.5000000000000004 71943.000000000015 2257.5000000000005 75000.000000000015
decision_type=2 2 2 2 2 2 2 2 2 2 2 2 2 2 2
left_child=1 6 10 -4 5 9 8 -8 -1 -2 -3 13 -13 -6 -7
right_child=4 2 3 -5 11 14 7 -9 -10 -11 -12 12 -14 -15 -16
leaf_value=0.023269350841359154 -0.020885644594207456 -0.001849338633434165 -0.0043681167110927862 -0.017759084829769532 -0.00069754891132338067 -0.058508959805483374 0.03092486158589244 -0.011121577405715346 -0.0019813400854960242 0.0050455698930778328 -0.028057553856501011 0.0096102765826433859 -0.017647098173463834 0.017120694474819412 -0.018431892800835355
leaf_weight=45.886419005692005 38.520081549882889 895.28980080038309 371.22370907664299 580.91058126837015 60.464970543980598 5.1413739472627666 72.592041604220867 32.208142980933189 489.60077346116304 1015.3737255930901 38.112054586410522 129.80271100997925 30.522761255502701 486.12079718708992 22.677350968122482
leaf_count=275 203 7289 3079 6704 256 28 425 258 3191 4911 376 569 131 2174 131
internal_value=0 -0.00507305 -0.00784817 -0.0125854 0.00696299 0.00320309 0.00302891 0.0175734 9.83806e-05 0.00405508 -0.00296767 0.0126527 0.00414034 0.0150673 -0.0274564
internal_weight=0 2525.82 1885.54 952.134 1788.62 1081.71 640.287 104.8 535.487 1053.89 933.402 706.911 160.325 546.586 27.8187
internal_count=30000 21597 17448 9783 8403 5273 4149 683 3466 5114 7665 3130 700 2430 159
shrinkage=0.05


Tree=44
num_leaves=15
num_cat=0
split_feature=1 20 14 5 6 36 14 31 16 14 6 30 14 32
split_gain=55.3805 24.0189 25.5684 18.5503 17.0316 12.1155 9.23997 8.73129 7.67549 6.0372 7.10243 6.86479 5.66613 4.31497
threshold=3.5000000000000004 4569.5000000000009 97102.500000000015 3.5000000000000004 1.5000000000000002 0.034404545454545458 5618.5000000000009 -617.99999999999989 -6.4999999999999991 15219.500000000002 1.5000000000000002 -1.0000000180025095e-35 2657.0000000000005 0.053857451923076928
decision_type=2 2 2 2 2 2 2 2 2 2 2 2 2 2
left_child=1 3 6 4 -1 -4 -3 8 -2 11 -11 -9 -10 -5
right_child=7 2 5 13 -6 -7 -8 9 12 10 -12 -13 -14 -15
leaf_value=0.0043124641354972786 0.060683320264399647 -0.0083870776500592822 0.0040010302231373576 -0.04411188622865355 -0.004199392103916063 -0.017187016417644124 -0.024516773229532933 -0.0031197856227821435 0.0032846833248235787 0.013125385068077068 0.0031062199081952372 0.018954561531568395 -0.03419389949082012 0
leaf_weight=1067.0379239395261 3.0242589712142935 143.23117952793837 274.07675170153379 30.243150949478149 1305.9688246846199 89.100075617432594 285.90758256614208 36.275699660181999 13.762375190854071 346.89398415386677 391.45379926264286 285.90211452543736 24.388285055756569 5.0138402059674254
leaf_count=7629 13 1301 2643 251 9386 846 3018 158 62 1552 1743 1252 112 34
internal_value=0 -0.00341189 -0.0109686 -0.000907061 -0.000353017 -0.00107324 -0.0192381 0.00958503 -0.0125126 0.0104854 0.00787442 0.0163294 -0.0194944 -0.0369212
internal_weight=0 3200.58 792.316 2408.26 2373.01 363.177 429.139 1101.7 41.1749 1060.53 738.348 322.178 38.1507 35.257
internal_count=30000 25108 7808 17300 17015 3489 4319 4892 187 4705 3295 1410 174 285
shrinkage=0.05


Tree=45
num_leaves=16
num_cat=0
split_feature=8 21 14 32 28 28 28 12 30 28 19 15 3 21 3
split_gain=51.1711 21.2794 18.2901 39.1441 16.762 14.4466 13.2394 10.6075 9.14836 7.91928 7.37733 7.41207 6.28769 5.99857 3.52339
threshold=1.5000000000000002 9860.5000000000018 8449.0000000000018 0.030304015151515155 285183.00000000006 -1.0000000180025095e-35 757.50000000000011 1.5000000000000002 -312.49999999999994 12721.500000000002 -51.499999999999993 44957.500000000007 365000.00000000006 11000.500000000002 145000.00000000003
decision_type=2 2 2 2 2 2 2 2 2 2 2 2 2 2 2
left_child=1 2 6 -4 12 10 -1 8 -7 -9 14 -12 -3 -6 -2
right_child=5 4 3 -5 13 7 -8 9 -10 -11 11 -13 -14 -15 -16
leaf_value=-0.0012506800455966316 0.056480605286516265 -0.01658156842378785 -0.016104547591522422 0.00029564464849556179 0.094692411008499136 -0.012248590086633909 0.011018740906173052 0.029073635727876815 0.0072603142252055455 0.011826544614881855 -0.015367929114930848 0.062138921238147987 -0.036598903531676517 0.0080370872547959622 0
leaf_weight=649.43210995197296 5.5214116275310499 215.04427579790354 583.27668667584658 953.24023020267487 2.317821964621543 63.047281190752983 328.52844648063183 89.863993257284164 851.1524608284235 343.57881627976894 109.77338417619467 2.9659312814474097 55.146194629371166 33.551226370036602 7.3783902227878571
leaf_count=4472 26 2245 5734 7418 19 315 2338 402 3871 1538 613 15 660 296 38
internal_value=0 -0.0040254 -0.00248912 -0.00590074 -0.0164998 0.00747159 0.002825 0.00899973 0.00586567 0.0155061 -0.00856156 -0.0129297 -0.0208337 0.0148912 0.0261263
internal_weight=0 2820.54 2514.48 1536.52 306.06 1473.28 977.961 1347.64 914.2 433.443 125.639 112.739 270.19 35.869 12.8998
internal_count=30000 23182 19962 13152 3220 6818 6810 6126 4186 1940 692 628 2905 315 64
shrinkage=0.05


Tree=46
num_leaves=16
num_cat=0
split_feature=1 23 3 26 8 3 7 14 1 3 6 21 37 9 16
split_gain=47.1378 19.7549 15.1456 17.1748 12.3075 9.65956 9.65141 8.72653 8.65286 8.29886 7.93129 5.55999 5.20808 5.82714 5.18265
threshold=1.5000000000000002 1.0000000180025095e-35 95000.000000000015 125920.00000000001 2.5000000000000004 245000.00000000003 4.5000000000000009 15853.000000000002 6.5000000000000009 315000.00000000006 1.5000000000000002 5.5000000000000009 0.039138134057971022 4.5000000000000009 6952.5000000000009
decision_type=2 2 2 2 2 2 2 2 2 2 2 2 2 2 2
left_child=1 6 10 -4 5 7 9 -2 -7 -1 -3 -8 13 -6 -14
right_child=4 2 3 -5 12 8 11 -9 -10 -11 -12 -13 14 -15 -16
leaf_value=-0.00019940993873899951 0.010093280842044267 0.005138329297320319 -0.013706161331004852 0.0012365742679571004 0.014471180108345146 -0.016496561372599229 0.081490646523079469 0.0003615566997195634 0.025895176148518457 0.015225222813944195 -0.0056712914796274282 0 -0.031673915013665233 -0.012469347786544467 0.0052480612335005644
leaf_weight=528.05740887671709 395.43633741140366 283.07484833151102 924.30745252221823 236.0095781981945 542.9408532679081 97.927462823688984 6.1271727457642537 576.11063918471336 12.991911888122557 103.21273019909859 417.60639121383429 2.1066187471151352 10.082238912582396 19.040457859635353 128.08019527792931
leaf_count=3432 1844 2211 9454 2475 2440 549 29 2826 54 672 3308 16 42 82 566
internal_value=0 -0.00450506 -0.00711752 -0.010628 0.0061359 0.00273958 0.00302702 0.00436885 -0.0111255 0.00225123 -0.00123999 0.0570397 0.0113225 0.0134783 0.00222802
internal_weight=0 2500.5 1861 1160.32 1782.61 1082.47 639.504 971.547 110.919 631.27 700.681 8.23379 700.144 561.981 138.162
internal_count=30000 21597 17448 11929 8403 5273 4149 4670 603 4104 5519 45 3130 2522 608
shrinkage=0.05


Tree=47
num_leaves=16
num_cat=0
split_feature=1 14 32 21 31 1 5 25 22 22 29 21 36 26 37
split_gain=42.6488 19.0201 25.2123 20.3634 13.7436 11.4966 10.5979 8.71972 8.46536 7.70946 7.58334 6.77946 6.41745 5.11301 3.29138
threshold=1.5000000000000002 8449.0000000000018 0.023809761904761906 19792.500000000004 12838.500000000002 5.5000000000000009 3.5000000000000004 7408.0000000000009 1420.5000000000002 500.50000000000006 233323.00000000003 15001.000000000002 0.038004545454545464 4144.5000000000009 0.028915345268542204
decision_type=2 2 2 2 2 2 2 2 2 2 2 2 2 2 2
left_child=1 4 8 -4 6 7 -1 9 -3 -2 -9 12 -7 -6 -13
right_child=5 2 3 -5 13 11 -8 10 -10 -11 -12 14 -14 -15 -16
leaf_value=0.002621148206854012 0.010801217407827373 -0.0086514769774790386 -0.0022338482453821821 -0.034643298683378357 -0.023408608646802581 0.013802607944719231 -0.03999509649460134 -0.01986400483370334 -0.024941384244981851 0.00072255261906741539 0.017352515753012204 0 0.0029088974393286886 0.016963510398390565 -0.052776954943778001
leaf_weight=1044.1951755657792 274.02187262475491 133.38264114409685 921.13842047005892 51.538575567305088 74.857961714267731 562.5229869633913 14.692738443613051 71.785598568618298 244.33542241901159 653.20220844447613 15.646417602896689 4.8591712862253171 192.77628418803215 7.438932202756404 5.9276008605957031
leaf_count=7313 1344 1299 8429 657 693 2489 115 392 3023 3211 81 22 836 68 28
internal_value=0 -0.00429565 -0.00831325 -0.00399737 0.000419058 0.00583658 0.00198732 0.00228875 -0.0193081 0.00374963 -0.0126892 0.0104768 0.0110818 -0.0192125 -0.0277096
internal_weight=0 2491.58 1350.4 972.677 1141.18 1780.74 1058.89 1014.66 377.718 927.224 87.432 766.086 755.299 82.2969 10.7868
internal_count=30000 21597 13408 9086 8189 8403 7428 5028 4322 4555 473 3375 3325 761 50
shrinkage=0.05


Tree=48
num_leaves=16
num_cat=0
split_feature=8 21 30 14 32 28 23 25 5 13 14 19 7 3 32
split_gain=39.3531 18.3552 15.8366 15.4372 33.2823 12.1688 11.8367 10.9668 9.17451 8.23344 7.8087 6.6488 7.30307 3.08643 2.91421
threshold=1.5000000000000002 9860.5000000000018 231862.50000000003 8449.0000000000018 0.030304015151515155 -1.0000000180025095e-35 2051.5000000000005 9619.0000000000018 3.5000000000000004 1.5000000000000002 439062.50000000006 -51.499999999999993 2.5000000000000004 145000.00000000003 0.038467948717948723
decision_type=2 2 2 2 2 2 2 2 2 2 2 2 2 2 2
left_child=1 3 10 6 -5 11 -1 -4 9 -7 -3 13 -13 -2 -10
right_child=5 2 7 4 -6 8 -8 -9 14 -11 -12 12 -14 -15 -16
leaf_value=0.0055770931744831475 0.052608698877724673 -0.020572672978338737 0.053548589996803564 -0.014866135761990768 0.00038102330556318177 0.0056795491324226396 -0.0079711411620660613 -0.0025434394122243343 -0.055120887800272404 0.014382093176073538 0.094323253516535061 -0.020164239294110497 0.0080093894868839242 0 0
leaf_weight=776.31074006855488 5.6099544167518598 258.47448857501149 12.122629113495348 568.5224050655961 951.3126889616251 927.6926608979702 201.31560605764389 26.293747346848249 7.3682778701186162 404.5356822758913 1.3502212688326825 82.595279537141323 29.198805443942547 7.3845681250095367 2.8723759204149246
leaf_count=4986 26 2866 104 5734 7418 4234 1824 238 37 1842 12 464 164 38 13
internal_value=0 -0.00355091 -0.0152993 -0.00212993 -0.00529285 0.00656031 0.00274117 0.0139855 0.00796569 0.00835588 -0.0198024 -0.00819807 -0.0124032 0.0245165 -0.0384015
internal_weight=0 2795.7 298.241 2497.46 1519.84 1467.26 977.626 38.4164 1342.47 1332.23 259.825 124.789 111.794 12.9945 10.2407
internal_count=30000 23182 3220 19962 13152 6818 6810 342 6126 6076 2878 692 628 64 50
shrinkage=0.05


Tree=49
num_leaves=16
num_cat=0
split_feature=1 20 14 4 29 6 8 32 21 25 32 6 7 32 3
split_gain=35.8034 17.7133 21.1524 14.563 14.5777 12.8357 10.1699 9.47491 8.81655 8.603 8.38523 5.1636 7.67376 5.14383 1.76995
threshold=1.5000000000000002 4901.0000000000009 133187.50000000003 1.5000000000000002 88.500000000000014 1.5000000000000002 2.5000000000000004 0.021251666666666672 15001.000000000002 1500.5000000000002 5.9166666666666671e-05 1.5000000000000002 3.5000000000000004 0.03356904761904763 75000.000000000015
decision_type=2 2 2 2 2 2 2 2 2 2 2 2 2 2 2
left_child=1 3 9 5 -5 -1 8 -4 10 -3 -2 13 -13 -8 -10
right_child=6 2 7 4 -6 -7 11 -9 14 -11 -12 12 -14 -15 -16
leaf_value=0.011578129892906582 0.0094405328795883394 -0.0077759445664704607 -0.032260892551985047 0.0013863374216808722 -0.0099267205114855518 -0.0017925207619378777 0.020512752072884149 0.0038856963734375406 -0.057209337696948907 -0.024151073880337763 -4.5507385469131593e-06 0.0075202112649856157 -0.026237631183629845 0.0072515017693920193 -0.016643315749121292
leaf_weight=316.7004037052393 343.75441266596317 132.46653021126986 19.82003191113472 492.85127086937428 654.81793435662985 403.60324594378471 181.49603965878487 206.75878371298313 4.9627468883991268 248.64609187468886 712.80062012374401 350.12641666829586 17.172942698001862 145.12019509077072 22.076024994254112
leaf_count=2475 1516 1272 256 3268 5912 3177 827 2125 28 3112 3598 1571 75 657 131
internal_value=0 -0.00395439 -0.011381 -0.00151426 -0.00502927 0.00402376 0.00534648 0.000525159 0.00226621 -0.0185775 0.00302585 0.0100917 0.00581936 0.0147584 -0.0257532
internal_weight=0 2475.66 607.691 1867.97 1147.67 720.304 1777.51 226.579 1083.59 381.113 1056.56 693.916 367.299 326.616 27.0388
internal_count=30000 21597 6765 14832 9180 5652 8403 2381 5273 4384 5114 3130 1646 1484 159
shrinkage=0.05


Tree=50
num_leaves=15
num_cat=0
split_feature=1 20 14 5 6 36 14 31 16 36 6 14 35 32
split_gain=32.4616 18.253 22.0167 16.2452 14.0885 11.1655 8.18399 7.20658 6.87027 5.4585 5.7357 5.16955 4.24627 4.02398
threshold=3.5000000000000004 4569.5000000000009 97102.500000000015 3.5000000000000004 1.5000000000000002 0.034404545454545458 17334.000000000004 -617.99999999999989 -6.4999999999999991 0.080012000000000014 1.5000000000000002 2657.0000000000005 0.12025882352941178 0.053857451923076928
decision_type=2 2 2 2 2 2 2 2 2 2 2 2 2 2
left_child=1 3 6 4 -1 -4 -3 8 -2 10 -9 -10 -11 -5
right_child=7 2 5 13 -6 -7 -8 9 11 12 -12 -13 -14 -15
leaf_value=0.0042903090000170402 0.055740997149465836 -0.010893278224853354 0.0047428058782271664 -0.042403570858146465 -0.0034864812228105734 -0.015888642306483673 -0.025726918500751796 0.013358620164374575 0.0020009537061559959 -0.00073303027728492318 0.0054658701495210217 -0.033579697728476222 -0.050500501364270228 0
leaf_weight=1062.7449470087886 3.0515152662992469 237.28236968070269 269.97472224384546 28.466650031507015 1288.2901252880692 86.543433077633381 172.90170198306441 455.89218604564667 13.793758228421209 68.442234888672829 522.31958942115307 24.173868224024773 4.7493777424097052 4.9807499647140494
leaf_count=7629 13 2424 2643 251 9386 846 1895 2053 62 298 2334 112 20 34
internal_value=0 -0.00264109 -0.00935517 -0.00046338 9.74247e-06 -0.000139179 -0.0172557 0.00736066 -0.0127759 0.00818906 0.00919026 -0.0194679 -0.00457725 -0.0350648
internal_weight=0 3151.18 766.702 2384.48 2351.04 356.518 410.184 1092.42 41.0191 1051.4 978.212 37.9676 73.1916 33.4474
internal_count=30000 25108 7808 17300 17015 3489 4319 4892 187 4705 4387 174 318 285
shrinkage=0.05


Tree=51
num_leaves=16
num_cat=0
split_feature=8 3 14 26 14 14 7 28 20 19 26 32 0 29 19
split_gain=30.2921 16.3412 25.2921 38.2891 19.5856 16.2177 11.4047 12.2515 8.89332 8.07827 7.36417 7.17078 6.38636 5.9108 0.962981
threshold=1.5000000000000002 145000.00000000003 6862.0000000000009 125920.00000000001 1.0000000180025095e-35 781.00000000000011 2.5000000000000004 -1.0000000180025095e-35 5754.5000000000009 -200.49999999999997 4582.0000000000009 0.12004000000000002 5.5000000000000009 2208.5000000000005 131.00000000000003
decision_type=2 2 2 2 2 2 2 2 2 2 2 2 2 2 2
left_child=1 4 10 -4 14 -6 7 9 -9 -2 -3 12 -8 -13 -1
right_child=6 2 3 -5 5 -7 11 8 -10 -11 -12 13 -14 -15 -16
leaf_value=-0.028720403067924106 0.030689604961738032 -0.00075166076082148179 -0.022733301798984223 0.001458768569204536 0.019596742793723455 -0.0002237442132377227 0.0079631800803993107 0.0063168859697436729 -0.0092609828241051913 -0.0194917272239283 0.029884488063545031 -0.00409845814569741 0.023882928471825372 0.066501302501844453 -0.059255756615808258
leaf_weight=19.959039062261585 8.2394353747367841 578.04444218799472 437.7344055660069 255.76533696055412 111.45871238410473 1342.0639991238713 312.14126719534397 859.62629155814648 100.3868552967906 82.876291334629059 20.27874331921339 2.5012474209070197 85.408715516328812 10.858998484909533 9.3533618301153165
leaf_count=111 40 4439 5137 2591 644 10049 1443 3914 486 470 151 14 398 53 60
internal_value=0 -0.00313373 -0.00724675 -0.0137463 0.000419114 0.00126517 0.00575927 0.0029425 0.00464106 -0.01446 0.000211469 0.0128552 0.0114965 0.0499157 -0.0399992
internal_weight=0 2774.66 1291.82 693.5 1482.84 1453.52 1462.04 1051.13 960.013 91.1157 598.323 410.91 397.55 13.3602 29.3124
internal_count=30000 23182 12318 7728 10864 10693 6818 4910 4400 510 4590 1908 1841 67 171
shrinkage=0.05


Tree=52
num_leaves=16
num_cat=0
split_feature=1 25 26 32 7 5 30 31 14 22 16 15 3 21 19
split_gain=28.1047 15.1844 12.7844 14.4456 10.0491 9.8185 12.6426 9.2338 9.28337 11.3825 10.6509 9.21916 4.47531 4.71746 4.21154
threshold=1.5000000000000002 540.50000000000011 1.0000000180025095e-35 0.018183766233766236 3.5000000000000004 1.5000000000000002 231862.50000000003 -617.99999999999989 15853.000000000002 2499.5000000000005 18815.500000000004 4594.0000000000009 95000.000000000015 1679.5000000000002 -51.499999999999993
decision_type=2 2 2 2 2 2 2 2 2 2 2 2 2 2 2
left_child=1 2 4 -4 -1 11 -7 12 9 -9 -10 -3 14 -14 -2
right_child=7 5 3 -5 -6 6 -8 8 10 -11 -12 -13 13 -15 -16
leaf_value=0.0047327398569745665 0.046694453169589811 -0.0028301336782440658 -0.013636541473469918 0.0037173201789867018 0.030456720936053918 -0.0045480633200890123 0.03363239799635296 0.013701492765192095 -0.011980375551189392 -0.0069415633869199375 0.0045366413188414308 -0.017092106820147064 -0.030589679923125349 -0.00014518736905082074 -0.0027510479860946313
leaf_weight=442.3726547434926 4.868343159556388 181.70198865234852 225.73757625743747 249.80379847809672 42.678918614983559 949.96095371618867 21.95146682113409 486.50537593662739 106.85013081133366 74.318151660263538 1010.6435077264905 342.37942195311189 34.998956434428692 24.773577570915222 29.152109280228615
leaf_count=2636 22 1506 1826 2023 232 9208 195 2238 505 363 4826 3971 181 132 136
internal_value=0 -0.00352506 0.00134169 -0.00442586 0.00708893 -0.00668013 -0.00363942 0.004736 0.00560668 0.0108857 0.00291708 -0.0122333 -0.0103641 -0.0187244 0.00300189
internal_weight=0 2456.59 960.593 475.541 485.052 1495.99 971.912 1772.11 1678.32 560.824 1117.49 524.081 93.793 59.7725 34.0205
internal_count=30000 21597 6717 3849 2868 14880 9403 8403 7932 2601 5331 5477 471 313 158
shrinkage=0.05


Tree=53
num_leaves=16
num_cat=0
split_feature=8 3 20 21 7 18 14 6 5 34 16 8 27 15 19
split_gain=25.947 19.4996 16.7059 14.4024 10.3851 7.89085 11.0231 5.83351 5.20232 6.87836 7.73984 7.6795 6.51501 9.68086 5.53309
threshold=2.5000000000000004 45000.000000000007 1201.0000000000002 19792.500000000004 2.5000000000000004 335.00000000000006 1.0000000180025095e-35 1.5000000000000002 2.5000000000000004 0.0045550505050505055 7162.5000000000009 5.5000000000000009 2248.0000000000005 3196.5000000000005 1067.0000000000002
decision_type=2 2 2 2 2 2 2 2 2 2 2 2 2 2 2
left_child=1 5 4 -4 -3 7 -7 -1 12 11 -11 -10 14 -14 -2
right_child=8 2 3 -5 -6 6 -8 -9 9 10 -12 -13 13 -15 -16
leaf_value=0.037877111165442463 0.0068623885321926429 -0.0016126733968621831 -0.0053510038670349092 -0.025923193183955213 0.009256483392932115 -0.041148062534086226 0.0051303005001057736 0.0094577005996673621 0.025667243979947737 -0.057094229503718445 -0.0017661732472987073 -0.048275502667244556 0.054047377170403713 0.011725775371627219 -0.024997996881340367
leaf_weight=31.948403984308243 35.225013718008995 775.28823997080326 1755.0763992927969 90.910729464143515 304.58176302909851 13.028306938707827 507.52866696566343 55.635751649737358 37.709102496504784 6.8872421234846106 108.39419789612293 3.4981947541236869 14.619674593210219 460.04305712878704 21.140504702925682
leaf_count=175 152 4628 15860 1153 1771 74 2891 318 171 29 485 15 75 2113 90
internal_value=0 -0.00179119 -0.00349438 -0.00638852 0.00141135 0.0063291 0.00388562 0.0203381 0.00882469 0.000507045 -0.00546198 0.018298 0.0111911 0.0131241 -0.00428884
internal_weight=0 3534 2925.86 1845.99 1079.87 608.141 520.557 87.5842 687.517 156.489 115.281 41.2073 531.028 474.663 56.3655
internal_count=30000 26870 23412 17013 6399 3458 2965 493 3130 700 514 186 2430 2188 242
shrinkage=0.05


Tree=54
num_leaves=16
num_cat=0
split_feature=1 25 5 28 27 5 14 20 5 20 11 19 36 32 21
split_gain=24.1841 16.9619 13.2989 13.8593 9.26277 8.83605 8.29471 8.03306 6.19812 12.1462 9.79997 8.49653 6.42451 7.74038 2.13632
threshold=5.5000000000000009 860.50000000000011 1.5000000000000002 310021.00000000006 127723.00000000001 3.5000000000000004 19820.500000000004 2383.0000000000005 1.5000000000000002 5849.0000000000009 1.5000000000000002 129227.00000000001 0.099852083333333355 0.13526250000000004 2369.5000000000005
decision_type=2 2 2 2 2 2 2 2 2 2 2 2 2 2 2
